{"learner":{"attributes":{"scikit_learn":"{\"_estimator_type\": \"classifier\"}"},"feature_names":["Marks_12th","Same_Stream","Category"],"feature_types":["float","int","int"],"gradient_booster":{"model":{"gbtree_model_param":{"num_parallel_tree":"1","num_trees":"100"},"iteration_indptr":[0,1,2,3,4,5,6,7,8,9,10,11,12,13,14,15,16,17,18,19,20,21,22,23,24,25,26,27,28,29,30,31,32,33,34,35,36,37,38,39,40,41,42,43,44,45,46,47,48,49,50,51,52,53,54,55,56,57,58,59,60,61,62,63,64,65,66,67,68,69,70,71,72,73,74,75,76,77,78,79,80,81,82,83,84,85,86,87,88,89,90,91,92,93,94,95,96,97,98,99,100],"tree_info":[0,0,0,0,0,0,0,0,0,0,0,0,0,0,0,0,0,0,0,0,0,0,0,0,0,0,0,0,0,0,0,0,0,0,0,0,0,0,0,0,0,0,0,0,0,0,0,0,0,0,0,0,0,0,0,0,0,0,0,0,0,0,0,0,0,0,0,0,0,0,0,0,0,0,0,0,0,0,0,0,0,0,0,0,0,0,0,0,0,0,0,0,0,0,0,0,0,0,0,0],"trees":[{"base_weights":[-3.0478317E-5,-1.4477806E0,8.8258845E-1,-1.7411774E0,-2.7575263E-1,9.161123E-2,2.0619361E0,-1.92624E-1,-1.3577598E0,-1.2017729E0,2.0271869E-1,8.1908965E-1,-1.3448683E0,9.15946E-1,2.0699227E-1,-1.6362232E0,3.650858E-1,-1.905131E-1,2.920691E-1,-1.1193837E0,1.4743682E0,-1.9190429E-1,-3.008935E-1,3.3707142E-2,1.31928E-1,-1.9163212E-1,-7.240241E-1,-1.6446112E-1,9.390744E-1,-1.8138257E-1,1.9728187E-1,-1.8507679E0,4.802298E-1,6.778464E-1,2.0643452E-1,-1.8951923E-1,2.0183678E-1,-1.8665503E-1,1.9173959E-1,3.337694E-2,1.8433987E-1,-1.9077718E-1,-2.9857958E-2,-9.8074555E-2,1.9715682E-1,-7.14026E-2,2.04832E-1],"categories":[],"categories_nodes":[],"categories_segments":[],"categories_sizes":[],"default_left":[0,0,0,0,0,0,0,0,0,0,0,0,0,0,0,0,0,0,0,0,0,0,0,0,0,0,0,0,0,0,0,0,0,0,0,0,0,0,0,0,0,0,0,0,0,0,0],"id":0,"left_children":[1,3,5,7,9,11,13,-1,15,17,-1,19,21,23,-1,25,27,-1,29,31,33,-1,35,-1,-1,-1,37,-1,39,-1,-1,41,43,45,-1,-1,-1,-1,-1,-1,-1,-1,-1,-1,-1,-1,-1],"loss_changes":[2.5549155E3,2.5992615E2,1.158547E3,4.0347046E1,3.2830527E2,7.7916144E2,2.6674805E0,0E0,9.678467E1,1.15725494E2,0E0,6.302522E2,1.4968658E2,7.7980995E-1,0E0,4.275879E1,3.46679E1,0E0,1.3084149E2,1.478214E2,1.7260522E2,0E0,3.3711176E2,0E0,0E0,0E0,1.3092584E2,0E0,1.195937E1,0E0,0E0,7.0743103E0,8.952144E1,3.048504E2,0E0,0E0,0E0,0E0,0E0,0E0,0E0,0E0,0E0,0E0,0E0,0E0,0E0],"parents":[2147483647,0,0,1,1,2,2,3,3,4,4,5,5,6,6,8,8,9,9,11,11,12,12,13,13,15,15,16,16,18,18,19,19,20,20,22,22,26,26,28,28,31,31,32,32,33,33],"right_children":[2,4,6,8,10,12,14,-1,16,18,-1,20,22,24,-1,26,28,-1,30,32,34,-1,36,-1,-1,-1,38,-1,40,-1,-1,42,44,46,-1,-1,-1,-1,-1,-1,-1,-1,-1,-1,-1,-1,-1],"split_conditions":[-4.1973132E-1,4E0,3E0,1E0,-8.162918E-1,2E0,-4.038695E-1,-1.92624E-1,-6.04378E-1,1E0,2.0271869E-1,1.2715845E-1,1E0,1E0,2.0699227E-1,3E0,1E0,-1.905131E-1,-1.3464652E0,1E0,7.935445E-1,-1.9190429E-1,7.935445E-1,3.3707142E-2,1.31928E-1,-1.9163212E-1,-1.0052656E0,-1.6446112E-1,3E0,-1.8138257E-1,1.9728187E-1,1.08411044E-1,1E0,1E0,2.0643452E-1,-1.8951923E-1,2.0183678E-1,-1.8665503E-1,1.9173959E-1,3.337694E-2,1.8433987E-1,-1.9077718E-1,-2.9857958E-2,-9.8074555E-2,1.9715682E-1,-7.14026E-2,2.04832E-1],"split_indices":[0,2,2,1,0,2,0,0,0,1,0,0,1,1,0,2,2,0,0,1,0,0,0,0,0,0,0,0,2,0,0,0,2,2,0,0,0,0,0,0,0,0,0,0,0,0,0],"split_type":[0,0,0,0,0,0,0,0,0,0,0,0,0,0,0,0,0,0,0,0,0,0,0,0,0,0,0,0,0,0,0,0,0,0,0,0,0,0,0,0,0,0,0,0,0,0,0],"sum_hessian":[1.997446E3,7.56283E2,1.2411631E3,6.044771E2,1.5180591E2,7.435493E2,4.9761374E2,4.0498218E2,1.9949492E2,1.0861113E2,4.319477E1,4.9386853E2,2.4968076E2,4.2445726E0,4.9336917E2,1.7178036E2,2.7714563E1,7.365582E1,3.4955307E1,1.245907E2,3.6927783E2,1.6054472E2,8.913603E1,2.4968076E0,1.7477653E0,1.3058304E2,4.1197327E1,5.7426577E0,2.1971907E1,1.5480207E1,1.94751E1,8.5390816E1,3.919988E1,1.5804791E2,2.1122992E2,5.293232E1,3.620371E1,2.8962967E1,1.2234357E1,1.3982122E1,7.9897842E0,8.2144966E1,3.2458498E0,1.997446E1,1.9225418E1,7.864944E1,7.939848E1],"tree_param":{"num_deleted":"0","num_feature":"3","num_nodes":"47","size_leaf_vector":"1"}},{"base_weights":[-5.860294E-4,-1.3230851E0,7.993672E-1,-1.5926692E0,-2.512814E-1,8.266735E-2,1.8625385E0,-1.7634533E-1,-1.239818E0,-1.0985469E0,1.8344286E-1,7.414254E-1,-1.2292311E0,8.554063E-1,1.8694842E-1,-1.4968144E0,3.3108735E-1,-1.7454258E-1,2.648533E-1,-1.0211831E0,1.3322635E0,-1.7573085E-1,-2.7422604E-1,3.1278573E-2,1.2350018E-1,-1.7549843E-1,-6.596526E-1,-1.521502E-1,8.546938E-1,-1.6672647E-1,1.789666E-1,-1.694863E0,4.3635234E-1,6.1294675E-1,1.8649153E-1,-1.7369324E-1,1.8271802E-1,-1.7124367E-1,1.7438388E-1,3.0234624E-2,1.682332E-1,-1.747682E-1,-2.7603973E-2,-8.925874E-2,1.7886344E-1,-6.4607404E-2,1.851778E-1],"categories":[],"categories_nodes":[],"categories_segments":[],"categories_sizes":[],"default_left":[0,0,0,0,0,0,0,0,0,0,0,0,0,0,0,0,0,0,0,0,0,0,0,0,0,0,0,0,0,0,0,0,0,0,0,0,0,0,0,0,0,0,0,0,0,0,0],"id":1,"left_children":[1,3,5,7,9,11,13,-1,15,17,-1,19,21,23,-1,25,27,-1,29,31,33,-1,35,-1,-1,-1,37,-1,39,-1,-1,41,43,45,-1,-1,-1,-1,-1,-1,-1,-1,-1,-1,-1,-1,-1],"loss_changes":[2.0957498E3,2.153324E2,9.403867E2,3.3752808E1,2.6928043E2,6.3901886E2,1.8773193E0,0E0,8.038345E1,9.586903E1,0E0,5.1390564E2,1.241839E2,6.945722E-1,0E0,3.5636353E1,2.9082209E1,0E0,1.08095116E2,1.2261879E2,1.4025177E2,0E0,2.773633E2,0E0,0E0,0E0,1.08572914E2,0E0,9.99172E0,0E0,0E0,5.894516E0,7.3536476E1,2.4840651E2,0E0,0E0,0E0,0E0,0E0,0E0,0E0,0E0,0E0,0E0,0E0,0E0,0E0],"parents":[2147483647,0,0,1,1,2,2,3,3,4,4,5,5,6,6,8,8,9,9,11,11,12,12,13,13,15,15,16,16,18,18,19,19,20,20,22,22,26,26,28,28,31,31,32,32,33,33],"right_children":[2,4,6,8,10,12,14,-1,16,18,-1,20,22,24,-1,26,28,-1,30,32,34,-1,36,-1,-1,-1,38,-1,40,-1,-1,42,44,46,-1,-1,-1,-1,-1,-1,-1,-1,-1,-1,-1,-1,-1],"split_conditions":[-4.1973132E-1,4E0,3E0,1E0,-8.162918E-1,2E0,-4.038695E-1,-1.7634533E-1,-6.04378E-1,1E0,1.8344286E-1,1.2715845E-1,1E0,1E0,1.8694842E-1,3E0,1E0,-1.7454258E-1,-1.3464652E0,1E0,7.935445E-1,-1.7573085E-1,7.935445E-1,3.1278573E-2,1.2350018E-1,-1.7549843E-1,-1.0052656E0,-1.521502E-1,3E0,-1.6672647E-1,1.789666E-1,1.08411044E-1,1E0,1E0,1.8649153E-1,-1.7369324E-1,1.8271802E-1,-1.7124367E-1,1.7438388E-1,3.0234624E-2,1.682332E-1,-1.747682E-1,-2.7603973E-2,-8.925874E-2,1.7886344E-1,-6.4607404E-2,1.851778E-1],"split_indices":[0,2,2,1,0,2,0,0,0,1,0,0,1,1,0,2,2,0,0,1,0,0,0,0,0,0,0,0,2,0,0,0,2,2,0,0,0,0,0,0,0,0,0,0,0,0,0],"split_type":[0,0,0,0,0,0,0,0,0,0,0,0,0,0,0,0,0,0,0,0,0,0,0,0,0,0,0,0,0,0,0,0,0,0,0,0,0,0,0,0,0,0,0,0,0,0,0],"sum_hessian":[1.9789773E3,7.45631E2,1.2333463E3,5.9539014E2,1.5024084E2,7.3735913E2,4.9598718E2,3.9850937E2,1.9688081E2,1.07176476E2,4.306436E1,4.9116162E2,2.4619756E2,4.2475114E0,4.917397E2,1.692406E2,2.7640203E1,7.249859E1,3.4677887E1,1.2312437E2,3.6803723E2,1.5799365E2,8.82039E1,2.4991078E0,1.7484034E0,1.2851263E2,4.0727978E1,5.6707E0,2.1969503E1,1.5254812E1,1.9423075E1,8.409325E1,3.903112E1,1.5749704E2,2.105402E2,5.2107418E1,3.6096485E1,2.8522146E1,1.2205831E1,1.3994916E1,7.9745884E0,8.0851585E1,3.241667E0,1.9856909E1,1.9174212E1,7.834932E1,7.914771E1],"tree_param":{"num_deleted":"0","num_feature":"3","num_nodes":"47","size_leaf_vector":"1"}},{"base_weights":[-8.8789494E-4,-1.227651E0,7.3629045E-1,-1.4788297E0,-2.3258393E-1,7.5925626E-2,1.7144485E0,-1.6394918E-1,-1.1481754E0,-1.0195408E0,1.689986E-1,6.813662E-1,-1.1411499E0,8.0135816E-1,1.7208041E-1,-1.3902134E0,3.0231825E-1,-1.623184E-1,2.439892E-1,-9.439187E-1,1.2226295E0,-1.6339312E-1,-2.53859E-1,2.9036945E-2,1.1622309E-1,-1.6318284E-1,-6.099244E-1,-1.421663E-1,7.825544E-1,-1.552658E-1,1.6506778E-1,-1.5746845E0,4.0099093E-1,5.6047994E-1,1.7167856E-1,-1.6155066E-1,1.6836178E-1,-1.5933843E-1,1.6104715E-1,2.740333E-2,1.5565379E-1,-1.6252238E-1,-2.5526924E-2,-8.153399E-2,1.6497724E-1,-5.8570493E-2,1.7052339E-1],"categories":[],"categories_nodes":[],"categories_segments":[],"categories_sizes":[],"default_left":[0,0,0,0,0,0,0,0,0,0,0,0,0,0,0,0,0,0,0,0,0,0,0,0,0,0,0,0,0,0,0,0,0,0,0,0,0,0,0,0,0,0,0,0,0,0,0],"id":2,"left_children":[1,3,5,7,9,11,13,-1,15,17,-1,19,21,23,-1,25,27,-1,29,31,33,-1,35,-1,-1,-1,37,-1,39,-1,-1,41,43,45,-1,-1,-1,-1,-1,-1,-1,-1,-1,-1,-1,-1,-1],"loss_changes":[1.7482188E3,1.8101624E2,7.798578E2,2.888562E1,2.2478629E2,5.3272705E2,1.4449463E0,0E0,6.80833E1,8.0661964E1,0E0,4.2580228E2,1.0460678E2,6.279149E-1,0E0,3.0177795E1,2.4611017E1,0E0,9.0744835E1,1.03414185E2,1.17667786E2,0E0,2.3210542E2,0E0,0E0,0E0,9.14223E1,0E0,8.564493E0,0E0,0E0,5.0984497E0,6.131142E1,2.0624478E2,0E0,0E0,0E0,0E0,0E0,0E0,0E0,0E0,0E0,0E0,0E0,0E0,0E0],"parents":[2147483647,0,0,1,1,2,2,3,3,4,4,5,5,6,6,8,8,9,9,11,11,12,12,13,13,15,15,16,16,18,18,19,19,20,20,22,22,26,26,28,28,31,31,32,32,33,33],"right_children":[2,4,6,8,10,12,14,-1,16,18,-1,20,22,24,-1,26,28,-1,30,32,34,-1,36,-1,-1,-1,38,-1,40,-1,-1,42,44,46,-1,-1,-1,-1,-1,-1,-1,-1,-1,-1,-1,-1,-1],"split_conditions":[-4.1973132E-1,4E0,3E0,1E0,-8.162918E-1,2E0,-4.038695E-1,-1.6394918E-1,-6.04378E-1,1E0,1.689986E-1,1.2715845E-1,1E0,1E0,1.7208041E-1,3E0,1E0,-1.623184E-1,-1.3464652E0,1E0,7.935445E-1,-1.6339312E-1,7.935445E-1,2.9036945E-2,1.1622309E-1,-1.6318284E-1,-1.0052656E0,-1.421663E-1,3E0,-1.552658E-1,1.6506778E-1,1.08411044E-1,1E0,1E0,1.7167856E-1,-1.6155066E-1,1.6836178E-1,-1.5933843E-1,1.6104715E-1,2.740333E-2,1.5565379E-1,-1.6252238E-1,-2.5526924E-2,-8.153399E-2,1.6497724E-1,-5.8570493E-2,1.7052339E-1],"split_indices":[0,2,2,1,0,2,0,0,0,1,0,0,1,1,0,2,2,0,0,1,0,0,0,0,0,0,0,0,2,0,0,0,2,2,0,0,0,0,0,0,0,0,0,0,0,0,0],"split_type":[0,0,0,0,0,0,0,0,0,0,0,0,0,0,0,0,0,0,0,0,0,0,0,0,0,0,0,0,0,0,0,0,0,0,0,0,0,0,0,0,0,0,0,0,0,0,0],"sum_hessian":[1.9311368E3,7.246152E2,1.2065217E3,5.78182E2,1.4643312E2,7.209072E2,4.8561447E2,3.8645087E2,1.9173117E2,1.0423626E2,4.2196854E1,4.8171548E2,2.3919174E2,4.2352557E0,4.813792E2,1.6434856E2,2.7382627E1,7.034483E1,3.3891422E1,1.2015991E2,3.6155557E2,1.5324269E2,8.5949036E1,2.4999733E0,1.7352825E0,1.2465733E2,3.9691216E1,5.538791E0,2.1843836E1,1.48372555E1,1.9054167E1,8.168065E1,3.8479263E1,1.5542561E2,2.0612994E2,5.0572887E1,3.5376152E1,2.770325E1,1.1987965E1,1.3999783E1,7.8440533E0,7.844412E1,3.2365243E0,1.9668732E1,1.8810534E1,7.7908295E1,7.751732E1],"tree_param":{"num_deleted":"0","num_feature":"3","num_nodes":"47","size_leaf_vector":"1"}},{"base_weights":[-1.048783E-3,-1.1523277E0,6.8673444E-1,-1.3888578E0,-2.1784247E-1,7.065024E-2,1.600364E0,-1.5422307E-1,-1.0747051E0,-9.5722365E-1,1.5778647E-1,6.33218E-1,-1.0719831E0,7.5272506E-1,1.6064082E-1,-1.2855474E0,4.107434E-1,-1.526815E-1,2.2745697E-1,-8.811512E-1,1.134861E0,-1.5369703E-1,-2.378061E-1,2.6965175E-2,1.0986564E-1,-1.543062E-1,-4.799154E-1,-1.3191031E-1,9.271518E-1,-1.4605449E-1,1.5416165E-1,-1.4791883E0,3.7163627E-1,5.1668876E-1,1.6026796E-1,-1.5195705E-1,1.5719812E-1,-1.498738E-1,1.5212071E-1,1.7605807E-1,1.582885E-2,-1.5287414E-1,-2.3611007E-2,-7.467601E-2,1.5407833E-1,-5.316783E-2,1.5919729E-1],"categories":[],"categories_nodes":[],"categories_segments":[],"categories_sizes":[],"default_left":[0,0,0,0,0,0,0,0,0,0,0,0,0,0,0,0,0,0,0,0,0,0,0,0,0,0,0,0,0,0,0,0,0,0,0,0,0,0,0,0,0,0,0,0,0,0,0],"id":3,"left_children":[1,3,5,7,9,11,13,-1,15,17,-1,19,21,23,-1,25,27,-1,29,31,33,-1,35,-1,-1,-1,37,-1,39,-1,-1,41,43,45,-1,-1,-1,-1,-1,-1,-1,-1,-1,-1,-1,-1,-1],"loss_changes":[1.4768676E3,1.538758E2,6.5709705E2,2.5154053E1,1.9014995E2,4.4961713E2,1.199707E0,0E0,5.8733734E1,6.867761E1,0E0,3.569965E2,8.915097E1,5.745318E-1,0E0,3.307312E1,2.2535198E1,0E0,7.711733E1,8.833423E1,1.0109766E2,0E0,1.967422E2,0E0,0E0,0E0,8.5727615E1,0E0,1.1870792E1,0E0,0E0,4.536743E0,5.1699585E1,1.7366316E2,0E0,0E0,0E0,0E0,0E0,0E0,0E0,0E0,0E0,0E0,0E0,0E0,0E0],"parents":[2147483647,0,0,1,1,2,2,3,3,4,4,5,5,6,6,8,8,9,9,11,11,12,12,13,13,15,15,16,16,18,18,19,19,20,20,22,22,26,26,28,28,31,31,32,32,33,33],"right_children":[2,4,6,8,10,12,14,-1,16,18,-1,20,22,24,-1,26,28,-1,30,32,34,-1,36,-1,-1,-1,38,-1,40,-1,-1,42,44,46,-1,-1,-1,-1,-1,-1,-1,-1,-1,-1,-1,-1,-1],"split_conditions":[-4.1973132E-1,4E0,3E0,1E0,-8.162918E-1,2E0,-4.038695E-1,-1.5422307E-1,-5.778263E-1,1E0,1.5778647E-1,1.2715845E-1,1E0,1E0,1.6064082E-1,3E0,1E0,-1.526815E-1,-1.3464652E0,1E0,7.935445E-1,-1.5369703E-1,7.935445E-1,2.6965175E-2,1.0986564E-1,-1.543062E-1,-1.0052656E0,-1.3191031E-1,2E0,-1.4605449E-1,1.5416165E-1,1.08411044E-1,1E0,1E0,1.6026796E-1,-1.5195705E-1,1.5719812E-1,-1.498738E-1,1.5212071E-1,1.7605807E-1,1.582885E-2,-1.5287414E-1,-2.3611007E-2,-7.467601E-2,1.5407833E-1,-5.316783E-2,1.5919729E-1],"split_indices":[0,2,2,1,0,2,0,0,0,1,0,0,1,1,0,2,2,0,0,1,0,0,0,0,0,0,0,0,2,0,0,0,2,2,0,0,0,0,0,0,0,0,0,0,0,0,0],"split_type":[0,0,0,0,0,0,0,0,0,0,0,0,0,0,0,0,0,0,0,0,0,0,0,0,0,0,0,0,0,0,0,0,0,0,0,0,0,0,0,0,0,0,0,0,0,0,0],"sum_hessian":[1.8631322E3,6.965325E2,1.1665997E3,5.554538E2,1.4107867E2,6.974012E2,4.6919846E2,3.70609E2,1.8484479E2,1.00262566E2,4.0816105E1,4.6761832E2,2.2978288E2,4.2108526E0,4.649876E2,1.6198717E2,2.285763E1,6.751347E1,3.2749092E1,1.1616891E2,3.5144943E2,1.4699974E2,8.2783134E1,2.4996831E0,1.7111696E0,1.2205711E2,3.9930046E1,4.8975644E0,1.7960066E1,1.4286756E1,1.8462336E1,7.851017E1,3.7658733E1,1.5230249E2,1.9914694E2,4.855493E1,3.4228203E1,2.6625418E1,1.3304628E1,7.9992385E0,9.960827E0,7.527949E1,3.2306852E0,1.9431755E1,1.822698E1,7.737243E1,7.493005E1],"tree_param":{"num_deleted":"0","num_feature":"3","num_nodes":"47","size_leaf_vector":"1"}},{"base_weights":[-1.1198575E-3,-1.0912882E0,6.4668435E-1,-1.3158208E0,-2.05929E-1,6.639905E-2,1.510026E0,-1.4641465E-1,-1.0138222E0,-9.0689737E-1,1.4884518E-1,5.934763E-1,-1.0163748E0,7.086555E-1,1.515948E-1,-1.2183233E0,3.7631962E-1,-1.4490762E-1,2.1400611E-1,-8.2879215E-1,1.0624684E0,-1.4589982E-1,-2.248363E-1,2.504825E-2,1.042522E-1,-1.4639464E-1,-4.5263824E-1,-1.2504603E-1,8.4915257E-1,-1.3848354E-1,1.4537619E-1,-1.4014411E0,3.4666875E-1,4.7918245E-1,1.512347E-1,-1.4420114E-1,1.4828041E-1,-1.4217551E-1,1.4337726E-1,1.6181539E-1,1.4420156E-2,-1.4509568E-1,-2.1842366E-2,-6.852349E-2,1.4529672E-1,-2.2008589E-2,1.8902849E-1],"categories":[],"categories_nodes":[],"categories_segments":[],"categories_sizes":[],"default_left":[0,0,0,0,0,0,0,0,0,0,0,0,0,0,0,0,0,0,0,0,0,0,0,0,0,0,0,0,0,0,0,0,0,0,0,0,0,0,0,0,0,0,0,0,0,0,0],"id":4,"left_children":[1,3,5,7,9,11,13,-1,15,17,-1,19,21,23,-1,25,27,-1,29,31,33,-1,35,-1,-1,-1,37,-1,39,-1,-1,41,43,45,-1,-1,-1,-1,-1,-1,-1,-1,-1,-1,-1,-1,-1],"loss_changes":[1.2598119E3,1.3190967E2,5.604877E2,2.2266296E1,1.6252127E2,3.8310852E2,1.0600586E0,0E0,5.103076E1,5.9023064E1,0E0,3.019956E2,7.668239E1,5.307746E-1,0E0,2.8547455E1,1.9197462E1,0E0,6.617036E1,7.621624E1,8.847281E1,0E0,1.684485E2,0E0,0E0,0E0,7.364717E1,0E0,9.992632E0,0E0,0E0,4.126129E0,4.3983955E1,1.4791124E2,0E0,0E0,0E0,0E0,0E0,0E0,0E0,0E0,0E0,0E0,0E0,0E0,0E0],"parents":[2147483647,0,0,1,1,2,2,3,3,4,4,5,5,6,6,8,8,9,9,11,11,12,12,13,13,15,15,16,16,18,18,19,19,20,20,22,22,26,26,28,28,31,31,32,32,33,33],"right_children":[2,4,6,8,10,12,14,-1,16,18,-1,20,22,24,-1,26,28,-1,30,32,34,-1,36,-1,-1,-1,38,-1,40,-1,-1,42,44,46,-1,-1,-1,-1,-1,-1,-1,-1,-1,-1,-1,-1,-1],"split_conditions":[-4.1973132E-1,4E0,3E0,1E0,-8.162918E-1,2E0,-4.038695E-1,-1.4641465E-1,-5.778263E-1,1E0,1.4884518E-1,1.2715845E-1,1E0,1E0,1.515948E-1,3E0,1E0,-1.4490762E-1,-1.3464652E0,1E0,7.935445E-1,-1.4589982E-1,7.935445E-1,2.504825E-2,1.042522E-1,-1.4639464E-1,-1.0052656E0,-1.2504603E-1,2E0,-1.3848354E-1,1.4537619E-1,1.08411044E-1,1E0,1E0,1.512347E-1,-1.4420114E-1,1.4828041E-1,-1.4217551E-1,1.4337726E-1,1.6181539E-1,1.4420156E-2,-1.4509568E-1,-2.1842366E-2,-6.852349E-2,1.4529672E-1,-2.2008589E-2,1.8902849E-1],"split_indices":[0,2,2,1,0,2,0,0,0,1,0,0,1,1,0,2,2,0,0,1,0,0,0,0,0,0,0,0,2,0,0,0,2,1,0,0,0,0,0,0,0,0,0,0,0,0,0],"split_type":[0,0,0,0,0,0,0,0,0,0,0,0,0,0,0,0,0,0,0,0,0,0,0,0,0,0,0,0,0,0,0,0,0,0,0,0,0,0,0,0,0,0,0,0,0,0,0],"sum_hessian":[1.781892E3,6.639193E2,1.1179727E3,5.292197E2,1.346996E2,6.692325E2,4.487401E2,3.5232718E2,1.7689255E2,9.561024E1,3.908936E1,4.5042474E2,2.1880775E2,4.176933E0,4.4456317E2,1.5431514E2,2.257741E1,6.4243164E1,3.1367071E1,1.1150545E2,3.3891928E2,1.3979309E2,7.901467E1,2.4984698E0,1.678463E0,1.1614516E2,3.8169983E1,4.7140675E0,1.7863342E1,1.364844E1,1.771863E1,7.4849014E1,3.6656425E1,1.4847742E2,1.9044188E2,4.622318E1,3.279149E1,2.537847E1,1.27915125E1,7.9239874E0,9.939356E0,7.162466E1,3.2243633E0,1.9162834E1,1.7493593E1,9.9844E1,4.8633415E1],"tree_param":{"num_deleted":"0","num_feature":"3","num_nodes":"47","size_leaf_vector":"1"}},{"base_weights":[-1.186883E-3,-1.0410689E0,6.116183E-1,-1.2556996E0,-1.961047E-1,6.2437795E-2,1.436942E0,-1.400309E-1,-9.630956E-1,-8.654703E-1,1.4155996E-1,5.555075E-1,-9.708178E-1,6.6847223E-1,1.4428808E-1,-1.1631249E0,3.4669334E-1,-1.3851948E-1,2.0281819E-1,-8.796194E-1,9.623046E-1,-1.3951388E-1,-2.1414275E-1,2.327296E-2,9.924767E-2,-1.3991576E-1,-4.29916E-1,-1.1911994E-1,7.823382E-1,-1.3214229E-1,1.3814574E-1,-1.3858406E-1,1.4251165E-1,4.118858E-1,1.4392962E-1,-1.3781302E-1,1.4100206E-1,-1.3579468E-1,1.3614239E-1,1.5052699E-1,1.3135969E-2,-9.2425026E-2,1.3704106E-1,-5.1099654E-2,1.4132182E-1],"categories":[],"categories_nodes":[],"categories_segments":[],"categories_sizes":[],"default_left":[0,0,0,0,0,0,0,0,0,0,0,0,0,0,0,0,0,0,0,0,0,0,0,0,0,0,0,0,0,0,0,0,0,0,0,0,0,0,0,0,0,0,0,0,0],"id":5,"left_children":[1,3,5,7,9,11,13,-1,15,17,-1,19,21,23,-1,25,27,-1,29,31,33,-1,35,-1,-1,-1,37,-1,39,-1,-1,-1,41,43,-1,-1,-1,-1,-1,-1,-1,-1,-1,-1,-1],"loss_changes":[1.0817986E3,1.1391046E2,4.8405276E2,1.9883179E1,1.4005731E2,3.2783133E2,9.829712E-1,0E0,4.4724167E1,5.110904E1,0E0,2.5510933E2,6.645033E1,4.9409842E-1,0E0,2.4835678E1,1.6463606E1,0E0,5.7219025E1,5.0237846E1,8.862427E1,0E0,1.4538654E2,0E0,0E0,0E0,6.3753086E1,0E0,8.587997E0,0E0,0E0,0E0,4.4412876E1,1.4780937E2,0E0,0E0,0E0,0E0,0E0,0E0,0E0,0E0,0E0,0E0,0E0],"parents":[2147483647,0,0,1,1,2,2,3,3,4,4,5,5,6,6,8,8,9,9,11,11,12,12,13,13,15,15,16,16,18,18,19,19,20,20,22,22,26,26,28,28,32,32,33,33],"right_children":[2,4,6,8,10,12,14,-1,16,18,-1,20,22,24,-1,26,28,-1,30,32,34,-1,36,-1,-1,-1,38,-1,40,-1,-1,-1,42,44,-1,-1,-1,-1,-1,-1,-1,-1,-1,-1,-1],"split_conditions":[-4.1973132E-1,4E0,3E0,1E0,-8.162918E-1,2E0,-4.038695E-1,-1.400309E-1,-5.778263E-1,1E0,1.4155996E-1,6.7198E-2,1E0,1E0,1.4428808E-1,3E0,1E0,-1.3851948E-1,-1.3464652E0,1E0,7.935445E-1,-1.3951388E-1,7.935445E-1,2.327296E-2,9.924767E-2,-1.3991576E-1,-1.0052656E0,-1.1911994E-1,2E0,-1.3214229E-1,1.3814574E-1,-1.3858406E-1,1E0,1E0,1.4392962E-1,-1.3781302E-1,1.4100206E-1,-1.3579468E-1,1.3614239E-1,1.5052699E-1,1.3135969E-2,-9.2425026E-2,1.3704106E-1,-5.1099654E-2,1.4132182E-1],"split_indices":[0,2,2,1,0,2,0,0,0,1,0,0,1,1,0,2,2,0,0,1,0,0,0,0,0,0,0,0,2,0,0,0,2,2,0,0,0,0,0,0,0,0,0,0,0],"split_type":[0,0,0,0,0,0,0,0,0,0,0,0,0,0,0,0,0,0,0,0,0,0,0,0,0,0,0,0,0,0,0,0,0,0,0,0,0,0,0,0,0,0,0,0,0],"sum_hessian":[1.6956187E3,6.284647E2,1.0671539E3,5.0077576E2,1.2768897E2,6.414205E2,4.2573343E2,3.3260947E2,1.6816629E2,9.0546585E1,3.7142384E1,4.3452667E2,2.0689381E2,4.13574E0,4.215977E2,1.4598381E2,2.2182484E1,6.0712963E1,2.9833624E1,9.571045E1,3.3881622E2,1.3201816E2,7.4875656E1,2.496531E0,1.6392087E0,1.0974629E2,3.6237514E1,4.5137877E0,1.7668695E1,1.2956659E1,1.6876965E1,6.3771233E1,3.193921E1,1.5816599E2,1.8065025E2,4.370507E1,3.1170584E1,2.4030228E1,1.2207287E1,7.7498884E0,9.918807E0,1.722336E1,1.4715851E1,8.256203E1,7.560395E1],"tree_param":{"num_deleted":"0","num_feature":"3","num_nodes":"45","size_leaf_vector":"1"}},{"base_weights":[-1.1987566E-3,-9.990664E-1,5.8326375E-1,-1.2053919E0,-1.8786363E-1,5.934443E-2,1.3767899E0,-1.3473456E-1,-9.200322E-1,-8.3081937E-1,1.3551812E-1,5.256331E-1,-9.329142E-1,6.3163143E-1,1.3828556E-1,-1.1170808E0,3.2072756E-1,-1.3318893E-1,1.9333497E-1,-7.476171E-1,9.3826795E-1,-1.3420503E-1,-2.0517431E-1,2.1627506E-2,9.474679E-2,-1.3452883E-1,-4.1064316E-1,-1.1392856E-1,7.2405136E-1,-1.2674294E-1,1.3208652E-1,-1.2890829E0,3.2077438E-1,4.0853524E-1,1.379206E-1,-1.3246892E-1,1.3495502E-1,-1.3042025E-1,1.300458E-1,1.4134283E-1,1.1965266E-2,-1.3386998E-1,-2.1985268E-2,-5.582097E-2,1.3203047E-1,-4.761565E-2,1.4133506E-1],"categories":[],"categories_nodes":[],"categories_segments":[],"categories_sizes":[],"default_left":[0,0,0,0,0,0,0,0,0,0,0,0,0,0,0,0,0,0,0,0,0,0,0,0,0,0,0,0,0,0,0,0,0,0,0,0,0,0,0,0,0,0,0,0,0,0,0],"id":6,"left_children":[1,3,5,7,9,11,13,-1,15,17,-1,19,21,23,-1,25,27,-1,29,31,33,-1,35,-1,-1,-1,37,-1,39,-1,-1,41,43,45,-1,-1,-1,-1,-1,-1,-1,-1,-1,-1,-1,-1,-1],"loss_changes":[9.3565283E2,9.89541E1,4.205356E2,1.7889587E1,1.2151057E2,2.8292242E2,9.4488525E-1,0E0,3.9483887E1,4.4530155E1,0E0,2.1921918E2,5.7936813E1,4.627061E-1,0E0,2.1746872E1,1.4197065E1,0E0,4.979388E1,5.962613E1,7.291159E1,0E0,1.2630621E2,0E0,0E0,0E0,5.5534836E1,0E0,7.499363E0,0E0,0E0,3.3200073E0,3.1686905E1,1.289611E2,0E0,0E0,0E0,0E0,0E0,0E0,0E0,0E0,0E0,0E0,0E0,0E0,0E0],"parents":[2147483647,0,0,1,1,2,2,3,3,4,4,5,5,6,6,8,8,9,9,11,11,12,12,13,13,15,15,16,16,18,18,19,19,20,20,22,22,26,26,28,28,31,31,32,32,33,33],"right_children":[2,4,6,8,10,12,14,-1,16,18,-1,20,22,24,-1,26,28,-1,30,32,34,-1,36,-1,-1,-1,38,-1,40,-1,-1,42,44,46,-1,-1,-1,-1,-1,-1,-1,-1,-1,-1,-1,-1,-1],"split_conditions":[-4.1973132E-1,4E0,3E0,1E0,-8.162918E-1,2E0,-4.038695E-1,-1.3473456E-1,-5.778263E-1,1E0,1.3551812E-1,1.2715845E-1,1E0,1E0,1.3828556E-1,3E0,1E0,-1.3318893E-1,-1.3464652E0,1E0,7.935445E-1,-1.3420503E-1,7.935445E-1,2.1627506E-2,9.474679E-2,-1.3452883E-1,-1.0052656E0,-1.1392856E-1,2E0,-1.2674294E-1,1.3208652E-1,1.08411044E-1,1E0,1E0,1.379206E-1,-1.3246892E-1,1.3495502E-1,-1.3042025E-1,1.300458E-1,1.4134283E-1,1.1965266E-2,-1.3386998E-1,-2.1985268E-2,-5.582097E-2,1.3203047E-1,-4.761565E-2,1.4133506E-1],"split_indices":[0,2,2,1,0,2,0,0,0,1,0,0,1,1,0,2,2,0,0,1,0,0,0,0,0,0,0,0,2,0,0,0,2,2,0,0,0,0,0,0,0,0,0,0,0,0,0],"split_type":[0,0,0,0,0,0,0,0,0,0,0,0,0,0,0,0,0,0,0,0,0,0,0,0,0,0,0,0,0,0,0,0,0,0,0,0,0,0,0,0,0,0,0,0,0,0,0],"sum_hessian":[1.6022992E3,5.915764E2,1.0107227E3,4.712343E2,1.2034211E2,6.0942773E2,4.01295E2,3.1220483E2,1.5902948E2,8.527239E1,3.5069717E1,4.1491733E2,1.9451039E2,4.08916E0,3.9720587E2,1.3732083E2,2.170864E1,5.705676E1,2.8215631E1,1.0135588E2,3.1356143E2,1.2397013E2,7.054026E1,2.4940302E0,1.5951295E0,1.031084E2,3.4212433E1,4.3039174E0,1.740472E1,1.2237432E1,1.59782E1,6.712835E1,3.4227528E1,1.4331395E2,1.7024748E2,4.109606E1,2.9444199E1,2.2631676E1,1.1580759E1,7.505444E0,9.899277E0,6.3910606E1,3.2177436E0,1.8446901E1,1.5780625E1,7.649228E1,6.682168E1],"tree_param":{"num_deleted":"0","num_feature":"3","num_nodes":"47","size_leaf_vector":"1"}},{"base_weights":[-1.157471E-3,-9.634343E-1,5.591549E-1,-1.1626952E0,-1.8084715E-1,5.6789946E-2,1.3265748E0,-1.3028668E-1,-8.8285863E-1,-8.014358E-1,1.3043177E-1,4.9992144E-1,-9.0096545E-1,5.976944E-1,1.332861E-1,-1.078155E0,2.9762417E-1,-1.2868254E-1,1.8516013E-1,-8.070316E-1,8.642358E-1,-1.2973616E-1,-1.9753993E-1,2.0101449E-2,9.066672E-2,-1.2999241E-1,-3.940316E-1,-1.0932058E-1,6.72436E-1,-1.2207762E-1,1.2692809E-1,-1.2873945E-1,1.1236205E-1,4.991314E-1,1.5453647E0,-1.2793808E-1,1.2985417E-1,-1.2582926E-1,1.24825515E-1,1.33706E-1,1.0897981E-2,-8.173044E-2,1.2583688E-1,-3.257617E-2,1.3242634E-1,1.7964594E-1,1.3150655E-1],"categories":[],"categories_nodes":[],"categories_segments":[],"categories_sizes":[],"default_left":[0,0,0,0,0,0,0,0,0,0,0,0,0,0,0,0,0,0,0,0,0,0,0,0,0,0,0,0,0,0,0,0,0,0,0,0,0,0,0,0,0,0,0,0,0,0,0],"id":7,"left_children":[1,3,5,7,9,11,13,-1,15,17,-1,19,21,23,-1,25,27,-1,29,31,33,-1,35,-1,-1,-1,37,-1,39,-1,-1,-1,41,43,45,-1,-1,-1,-1,-1,-1,-1,-1,-1,-1,-1,-1],"loss_changes":[8.136003E2,8.638269E1,3.6758875E2,1.6203857E1,1.0600538E2,2.4551205E2,9.3188477E-1,0E0,3.507621E1,3.8997814E1,0E0,1.8896823E2,5.0772247E1,4.3531406E-1,0E0,1.9145767E1,1.2299424E1,0E0,4.356182E1,3.843996E1,7.6245316E1,0E0,1.1032627E2,0E0,0E0,0E0,4.8629112E1,0E0,6.630105E0,0E0,0E0,0E0,3.3711758E1,1.3867024E2,3.8595886E0,0E0,0E0,0E0,0E0,0E0,0E0,0E0,0E0,0E0,0E0,0E0,0E0],"parents":[2147483647,0,0,1,1,2,2,3,3,4,4,5,5,6,6,8,8,9,9,11,11,12,12,13,13,15,15,16,16,18,18,19,19,20,20,22,22,26,26,28,28,32,32,33,33,34,34],"right_children":[2,4,6,8,10,12,14,-1,16,18,-1,20,22,24,-1,26,28,-1,30,32,34,-1,36,-1,-1,-1,38,-1,40,-1,-1,-1,42,44,46,-1,-1,-1,-1,-1,-1,-1,-1,-1,-1,-1,-1],"split_conditions":[-4.1973132E-1,4E0,3E0,1E0,-8.162918E-1,2E0,-4.038695E-1,-1.3028668E-1,-5.778263E-1,1E0,1.3043177E-1,6.7198E-2,1E0,1E0,1.332861E-1,3E0,1E0,-1.2868254E-1,-1.3464652E0,1E0,1E0,-1.2973616E-1,7.935445E-1,2.0101449E-2,9.066672E-2,-1.2999241E-1,-1.0052656E0,-1.0932058E-1,2E0,-1.2207762E-1,1.2692809E-1,-1.2873945E-1,1E0,7.935445E-1,7.935445E-1,-1.2793808E-1,1.2985417E-1,-1.2582926E-1,1.24825515E-1,1.33706E-1,1.0897981E-2,-8.173044E-2,1.2583688E-1,-3.257617E-2,1.3242634E-1,1.7964594E-1,1.3150655E-1],"split_indices":[0,2,2,1,0,2,0,0,0,1,0,0,1,1,0,2,2,0,0,1,1,0,0,0,0,0,0,0,2,0,0,0,2,0,0,0,0,0,0,0,0,0,0,0,0,0,0],"split_type":[0,0,0,0,0,0,0,0,0,0,0,0,0,0,0,0,0,0,0,0,0,0,0,0,0,0,0,0,0,0,0,0,0,0,0,0,0,0,0,0,0,0,0,0,0,0,0],"sum_hessian":[1.5069718E3,5.543005E2,9.526713E2,4.4142096E2,1.128795E2,5.7641504E2,3.762563E2,2.9166745E2,1.4975348E2,7.993737E1,3.294213E1,3.9440903E2,1.8200601E2,4.038764E0,3.722175E2,1.2856985E2,2.1183626E1,5.337394E1,2.6563433E1,8.57111E1,3.0869794E2,1.1586764E2,6.6138374E1,2.4911056E0,1.5476587E0,9.641527E1,3.215459E1,4.0900025E0,1.7093624E1,1.1510304E1,1.5053128E1,5.6034203E1,2.9676895E1,2.0209962E2,1.0659832E2,3.8467064E1,2.767131E1,2.1220842E1,1.0933749E1,7.2128057E0,9.880818E0,1.6543367E1,1.3133528E1,1.0136708E2,1.00732544E2,4.7743355E1,5.885497E1],"tree_param":{"num_deleted":"0","num_feature":"3","num_nodes":"47","size_leaf_vector":"1"}},{"base_weights":[-1.0501298E-3,-9.3282354E-1,5.362361E-1,-1.1259987E0,-1.7479369E-1,5.4355666E-2,1.2841517E0,-1.2651294E-1,-8.502753E-1,-7.762158E-1,1.2609337E-1,4.7298646E-1,-8.7373245E-1,5.663032E-1,1.2907417E-1,-1.0725416E0,1.4224106E-1,-1.24829285E-1,1.7800465E-1,-6.18955E-2,1.2870225E-1,-1.2593406E-1,-1.9095388E-1,1.8685326E-2,8.6941615E-2,-1.2561218E-1,-4.8695993E-1,-4.225781E-1,1.3610537E-1,-1.17992006E-1,1.2247416E-1,-6.2376803E-1,1.0908439E0,-1.24051094E-1,1.254938E-1,-1.2185737E-1,1.1793274E-1,1.3896047E-2,-1.620224E-1,-1.4921765E-1,3.4910746E-2,-2.503911E-2,1.7204817E-1],"categories":[],"categories_nodes":[],"categories_segments":[],"categories_sizes":[],"default_left":[0,0,0,0,0,0,0,0,0,0,0,0,0,0,0,0,0,0,0,0,0,0,0,0,0,0,0,0,0,0,0,0,0,0,0,0,0,0,0,0,0,0,0],"id":8,"left_children":[1,3,5,7,9,11,13,-1,15,17,-1,19,21,23,-1,25,27,-1,29,31,-1,-1,33,-1,-1,-1,35,37,-1,-1,-1,39,41,-1,-1,-1,-1,-1,-1,-1,-1,-1,-1],"loss_changes":[7.0960913E2,7.571445E1,3.239462E2,1.4765381E1,9.290797E1,2.1324829E2,9.3530273E-1,0E0,3.137642E1,3.4300728E1,0E0,1.6473743E2,4.4685562E1,4.109999E-1,0E0,1.183252E1,1.901071E1,0E0,3.8279682E1,1.4910974E2,0E0,0E0,9.680676E1,0E0,0E0,0E0,3.7109634E1,1.3045265E1,0E0,0E0,0E0,1.3122435E2,6.415686E1,0E0,0E0,0E0,0E0,0E0,0E0,0E0,0E0,0E0,0E0],"parents":[2147483647,0,0,1,1,2,2,3,3,4,4,5,5,6,6,8,8,9,9,11,11,12,12,13,13,15,15,16,16,18,18,19,19,22,22,26,26,27,27,31,31,32,32],"right_children":[2,4,6,8,10,12,14,-1,16,18,-1,20,22,24,-1,26,28,-1,30,32,-1,-1,34,-1,-1,-1,36,38,-1,-1,-1,40,42,-1,-1,-1,-1,-1,-1,-1,-1,-1,-1],"split_conditions":[-4.1973132E-1,4E0,3E0,1E0,-8.162918E-1,2E0,-4.038695E-1,-1.2651294E-1,-6.1761594E-1,1E0,1.2609337E-1,7.935445E-1,1E0,1E0,1.2907417E-1,3E0,3E0,-1.24829285E-1,-1.3464652E0,1E0,1.2870225E-1,-1.2593406E-1,7.935445E-1,1.8685326E-2,8.6941615E-2,-1.2561218E-1,-1.0052656E0,2E0,1.3610537E-1,-1.17992006E-1,1.2247416E-1,1E0,-1.8059662E-2,-1.24051094E-1,1.254938E-1,-1.2185737E-1,1.1793274E-1,1.3896047E-2,-1.620224E-1,-1.4921765E-1,3.4910746E-2,-2.503911E-2,1.7204817E-1],"split_indices":[0,2,2,1,0,2,0,0,0,1,0,0,1,1,0,2,2,0,0,1,0,0,0,0,0,0,0,2,0,0,0,2,0,0,0,0,0,0,0,0,0,0,0],"split_type":[0,0,0,0,0,0,0,0,0,0,0,0,0,0,0,0,0,0,0,0,0,0,0,0,0,0,0,0,0,0,0,0,0,0,0,0,0,0,0,0,0,0,0],"sum_hessian":[1.4154359E3,5.174049E2,8.9803094E2,4.1194107E2,1.0546385E2,5.468009E2,3.5123004E2,2.7140237E2,1.405387E2,7.465179E1,3.0812063E1,3.7716446E2,1.6963644E2,3.9858463E0,3.472442E2,1.14758736E2,2.577996E1,4.97373E1,2.4914484E1,2.2816628E2,1.4899818E2,1.0787063E2,6.176581E1,2.4878702E0,1.4979762E0,8.649685E1,2.826188E1,1.8062683E1,7.7172766E0,1.07897625E1,1.41247225E1,1.5370547E2,7.446081E1,3.587012E1,2.5895685E1,1.9825726E1,8.436155E0,1.28988085E1,5.1638746E0,8.093102E1,7.277445E1,2.3980536E1,5.0480274E1],"tree_param":{"num_deleted":"0","num_feature":"3","num_nodes":"43","size_leaf_vector":"1"}},{"base_weights":[-1.1351948E-3,-9.053894E-1,5.15351E-1,-1.0928137E0,-1.6950615E-1,5.1700234E-2,1.2479414E0,-1.2328317E-1,-8.185848E-1,-7.543305E-1,1.22349285E-1,4.475256E-1,-8.502888E-1,5.371637E-1,1.254914E-1,-1.0175354E0,2.6633155E-1,-1.21500805E-1,1.7165282E-1,-7.029318E-1,8.062643E-1,-1.2266914E-1,-1.8520226E-1,1.737061E-2,8.3518654E-2,-1.2295288E-1,-3.669796E-1,-1.0569363E-1,6.219059E-1,-1.1436903E-1,1.1857845E-1,-1.2442692E-1,2.4727044E-1,3.539733E-1,1.299468E-1,-1.2068063E-1,1.2172129E-1,-1.1838051E-1,1.16270006E-1,1.266011E-1,8.840437E-3,-5.253711E-2,1.21688105E-1,-2.5510112E-2,1.5382434E-1],"categories":[],"categories_nodes":[],"categories_segments":[],"categories_sizes":[],"default_left":[0,0,0,0,0,0,0,0,0,0,0,0,0,0,0,0,0,0,0,0,0,0,0,0,0,0,0,0,0,0,0,0,0,0,0,0,0,0,0,0,0,0,0,0,0],"id":9,"left_children":[1,3,5,7,9,11,13,-1,15,17,-1,19,21,23,-1,25,27,-1,29,31,33,-1,35,-1,-1,-1,37,-1,39,-1,-1,-1,41,43,-1,-1,-1,-1,-1,-1,-1,-1,-1,-1,-1],"loss_changes":[6.204173E2,6.6420654E1,2.8712152E2,1.3762512E1,8.174797E1,1.8561958E2,9.4976807E-1,0E0,2.8980621E1,3.0280476E1,0E0,1.4965848E2,3.947323E1,3.8909233E-1,0E0,1.5078728E1,1.0728386E1,0E0,3.3765694E1,4.4751877E1,6.1072998E1,0E0,8.527117E1,0E0,0E0,0E0,3.7737946E1,0E0,5.901743E0,0E0,0E0,0E0,2.475734E1,1.051729E2,0E0,0E0,0E0,0E0,0E0,0E0,0E0,0E0,0E0,0E0,0E0],"parents":[2147483647,0,0,1,1,2,2,3,3,4,4,5,5,6,6,8,8,9,9,11,11,12,12,13,13,15,15,16,16,18,18,19,19,20,20,22,22,26,26,28,28,32,32,33,33],"right_children":[2,4,6,8,10,12,14,-1,16,18,-1,20,22,24,-1,26,28,-1,30,32,34,-1,36,-1,-1,-1,38,-1,40,-1,-1,-1,42,44,-1,-1,-1,-1,-1,-1,-1,-1,-1,-1,-1],"split_conditions":[-4.1973132E-1,4E0,3E0,1E0,-8.162918E-1,2E0,-4.038695E-1,-1.2328317E-1,-5.778263E-1,1E0,1.22349285E-1,1.08411044E-1,1E0,1E0,1.254914E-1,3E0,1E0,-1.21500805E-1,-1.3464652E0,1E0,1E0,-1.2266914E-1,7.935445E-1,1.737061E-2,8.3518654E-2,-1.2295288E-1,-1.0052656E0,-1.0569363E-1,2E0,-1.1436903E-1,1.1857845E-1,-1.2442692E-1,1E0,1E0,1.299468E-1,-1.2068063E-1,1.2172129E-1,-1.1838051E-1,1.16270006E-1,1.266011E-1,8.840437E-3,-5.253711E-2,1.21688105E-1,-2.5510112E-2,1.5382434E-1],"split_indices":[0,2,2,1,0,2,0,0,0,1,0,0,1,1,0,2,2,0,0,1,2,0,0,0,0,0,0,0,2,0,0,0,2,1,0,0,0,0,0,0,0,0,0,0,0],"split_type":[0,0,0,0,0,0,0,0,0,0,0,0,0,0,0,0,0,0,0,0,0,0,0,0,0,0,0,0,0,0,0,0,0,0,0,0,0,0,0,0,0,0,0,0,0],"sum_hessian":[1.3264185E3,4.819233E2,8.444952E2,3.8371005E2,9.8213264E1,5.178332E2,3.2666202E2,2.5169963E2,1.3201042E2,6.949541E1,2.8717852E1,3.6024744E2,1.5758574E2,3.931461E0,3.2273056E2,1.1160629E2,2.0404123E1,4.6199158E1,2.3296251E1,8.540342E1,2.7484402E2,1.0009374E2,5.7491993E1,2.4844184E0,1.4470427E0,8.350498E1,2.8101305E1,3.903775E0,1.6500349E1,1.0086354E1,1.3209897E1,5.421006E1,3.1193363E1,1.4426443E2,1.3057959E2,3.3342663E1,2.414933E1,1.8466557E1,9.634749E0,6.8532667E0,9.647081E0,1.7614933E1,1.3578429E1,9.578596E1,4.8478474E1],"tree_param":{"num_deleted":"0","num_feature":"3","num_nodes":"45","size_leaf_vector":"1"}},{"base_weights":[-1.0744208E-3,-8.8198435E-1,4.965291E-1,-1.064714E0,-1.648342E-1,4.9539838E-2,1.2167536E0,-1.20497935E-1,-7.9238325E-1,-7.351454E-1,1.1908306E-1,4.2435804E-1,-8.2992643E-1,5.1003265E-1,1.2241856E-1,-9.9232394E-1,2.4815738E-1,-1.1859869E-1,1.6593948E-1,-7.982361E-2,1.2309922E-1,-1.1984223E-1,-1.8012092E-1,1.6149594E-2,8.035519E-2,-1.2006097E-1,-3.5540622E-1,-2.2474326E-1,1.293654E-1,-1.11118115E-1,1.1512951E-1,-5.9134233E-1,9.6351105E-1,-1.1772887E-1,1.1842096E-1,-1.1530306E-1,1.127153E-1,3.851195E-2,-1.5474911E-1,-1.4108093E-1,3.0746773E-2,-2.5817653E-2,1.5635885E-1],"categories":[],"categories_nodes":[],"categories_segments":[],"categories_sizes":[],"default_left":[0,0,0,0,0,0,0,0,0,0,0,0,0,0,0,0,0,0,0,0,0,0,0,0,0,0,0,0,0,0,0,0,0,0,0,0,0,0,0,0,0,0,0],"id":10,"left_children":[1,3,5,7,9,11,13,-1,15,17,-1,19,21,23,-1,25,27,-1,29,31,-1,-1,33,-1,-1,-1,35,37,-1,-1,-1,39,41,-1,-1,-1,-1,-1,-1,-1,-1,-1,-1],"loss_changes":[5.443696E2,5.8569366E1,2.5542458E2,1.2684753E1,7.216865E1,1.6211589E2,9.7164917E-1,0E0,2.6108383E1,2.6815857E1,0E0,1.4030287E2,3.4979286E1,3.6910236E-1,0E0,1.34328E1,1.0592453E1,0E0,2.9881104E1,1.1428982E2,0E0,0E0,7.535731E1,0E0,0E0,0E0,3.3424263E1,1.2856725E1,0E0,0E0,0E0,1.0620401E2,5.2074013E1,0E0,0E0,0E0,0E0,0E0,0E0,0E0,0E0,0E0,0E0],"parents":[2147483647,0,0,1,1,2,2,3,3,4,4,5,5,6,6,8,8,9,9,11,11,12,12,13,13,15,15,16,16,18,18,19,19,22,22,26,26,27,27,31,31,32,32],"right_children":[2,4,6,8,10,12,14,-1,16,18,-1,20,22,24,-1,26,28,-1,30,32,-1,-1,34,-1,-1,-1,36,38,-1,-1,-1,40,42,-1,-1,-1,-1,-1,-1,-1,-1,-1,-1],"split_conditions":[-4.1973132E-1,4E0,3E0,1E0,-8.162918E-1,2E0,-4.038695E-1,-1.20497935E-1,-5.778263E-1,1E0,1.1908306E-1,7.935445E-1,1E0,1E0,1.2241856E-1,3E0,3E0,-1.1859869E-1,-1.3464652E0,1E0,1.2309922E-1,-1.1984223E-1,7.935445E-1,1.6149594E-2,8.035519E-2,-1.2006097E-1,-1.0052656E0,2E0,1.293654E-1,-1.11118115E-1,1.1512951E-1,1E0,-1.8059662E-2,-1.1772887E-1,1.1842096E-1,-1.1530306E-1,1.127153E-1,3.851195E-2,-1.5474911E-1,-1.4108093E-1,3.0746773E-2,-2.5817653E-2,1.5635885E-1],"split_indices":[0,2,2,1,0,2,0,0,0,1,0,0,1,1,0,2,2,0,0,1,0,0,0,0,0,0,0,2,0,0,0,2,0,0,0,0,0,0,0,0,0,0,0],"split_type":[0,0,0,0,0,0,0,0,0,0,0,0,0,0,0,0,0,0,0,0,0,0,0,0,0,0,0,0,0,0,0,0,0,0,0,0,0,0,0,0,0,0,0],"sum_hessian":[1.2398789E3,4.472816E2,7.925972E2,3.560703E2,9.121127E1,4.8972842E2,3.0286884E2,2.3276097E2,1.23309364E2,6.452439E1,2.6686878E1,3.4374557E2,1.4598285E2,3.8764591E0,2.9899237E2,1.03473236E2,1.9836124E1,4.2796005E1,2.1728384E1,2.120845E2,1.3166107E2,9.261682E1,5.336602E1,2.4808278E0,1.3956313E0,7.730712E1,2.6166115E1,1.4198756E1,5.6373672E0,9.40755E0,1.2320834E1,1.4260323E2,6.948128E1,3.0910856E1,2.2455166E1,1.7157541E1,9.0085745E0,1.0203299E1,3.9954581E0,7.429607E1,6.830716E1,2.3074354E1,4.6406925E1],"tree_param":{"num_deleted":"0","num_feature":"3","num_nodes":"43","size_leaf_vector":"1"}},{"base_weights":[-1.1325051E-3,-7.823316E-1,5.282083E-1,-1.1094531E0,-2.938763E-1,1.2228101E-1,1.1973649E-1,-1.1825414E-1,-8.7284493E-1,-8.846781E-1,7.0059276E-1,5.005637E-1,-7.8593814E-1,-1.17310934E-1,-3.5649583E-1,-1.1731581E-1,-2.9174736E-1,2.3883384E-1,1.1800134E-1,2.6632193E-2,1.2026794E-1,-1.1728138E-1,-1.05892815E-1,-1.2440033E-1,1.4290646E-1,-1.1363747E-1,4.1856948E-1,-3.8724443E-1,1.2288058E-1,-4.747742E-1,1.0791891E0,-1.14624776E-1,1.1550317E-1,1.2270477E-1,-1.3399692E-1,-4.0380087E-2,1.1204077E-1,-1.1080711E-1,8.015957E-2,-1.3712026E-1,5.0549578E-2,-1.9568374E-2,1.4890373E-1],"categories":[],"categories_nodes":[],"categories_segments":[],"categories_sizes":[],"default_left":[0,0,0,0,0,0,0,0,0,0,0,0,0,0,0,0,0,0,0,0,0,0,0,0,0,0,0,0,0,0,0,0,0,0,0,0,0,0,0,0,0,0,0],"id":11,"left_children":[1,3,5,7,9,11,-1,-1,13,15,17,19,21,-1,23,-1,25,27,-1,29,-1,-1,31,-1,33,-1,35,37,-1,39,41,-1,-1,-1,-1,-1,-1,-1,-1,-1,-1,-1,-1],"loss_changes":[4.7902682E2,7.4436005E1,1.8741823E2,3.8076172E0,1.1168072E2,1.4843759E2,0E0,0E0,1.04139595E1,2.0016495E1,1.5437187E1,1.0139648E2,3.3313103E1,0E0,1.2200673E1,0E0,2.464566E1,2.3670525E1,0E0,9.709276E1,0E0,0E0,6.3220886E1,0E0,3.0992422E1,0E0,1.3504546E1,2.118515E1,0E0,1.10226425E2,3.130368E1,0E0,0E0,0E0,0E0,0E0,0E0,0E0,0E0,0E0,0E0,0E0,0E0],"parents":[2147483647,0,0,1,1,2,2,3,3,4,4,5,5,8,8,9,9,10,10,11,11,12,12,14,14,16,16,17,17,19,19,22,22,24,24,26,26,27,27,29,29,30,30],"right_children":[2,4,6,8,10,12,-1,-1,14,16,18,20,22,-1,24,-1,26,28,-1,30,-1,-1,32,-1,34,-1,36,38,-1,40,42,-1,-1,-1,-1,-1,-1,-1,-1,-1,-1,-1,-1],"split_conditions":[-2.763383E-1,3E0,3E0,-5.778263E-1,-8.162918E-1,2E0,1.1973649E-1,-1.1825414E-1,1E0,1E0,4E0,7.935445E-1,1E0,-1.17310934E-1,1E0,-1.1731581E-1,-1.3464652E0,1E0,1.1800134E-1,1E0,1.2026794E-1,-1.1728138E-1,7.935445E-1,-1.2440033E-1,2E0,-1.1363747E-1,4E0,-4.1973132E-1,1.2288058E-1,1E0,-1.8059662E-2,-1.14624776E-1,1.1550317E-1,1.2270477E-1,-1.3399692E-1,-4.0380087E-2,1.1204077E-1,-1.1080711E-1,8.015957E-2,-1.3712026E-1,5.0549578E-2,-1.9568374E-2,1.4890373E-1],"split_indices":[0,2,2,0,0,2,0,0,1,1,2,0,1,0,2,0,0,1,0,1,0,0,0,0,2,0,2,0,0,2,0,0,0,0,0,0,0,0,0,0,0,0,0],"split_type":[0,0,0,0,0,0,0,0,0,0,0,0,0,0,0,0,0,0,0,0,0,0,0,0,0,0,0,0,0,0,0,0,0,0,0,0,0,0,0,0,0,0,0],"sum_hessian":[1.1564117E3,4.6689377E2,6.895179E2,2.788649E2,1.8802888E2,4.299077E2,2.5961017E2,2.0999849E2,6.88664E1,1.1802318E2,7.0005714E1,3.0381464E2,1.2609309E2,4.274035E1,2.6126053E1,7.873667E1,3.9286503E1,3.6422844E1,3.358287E1,1.8200102E2,1.2181362E2,7.9908676E1,4.618441E1,8.870664E0,1.725539E1,1.7672537E1,2.1613966E1,2.2685139E1,1.3737707E1,1.2364784E2,5.8353176E1,2.5355343E1,2.0829065E1,1.0067493E1,7.1878967E0,1.0147919E1,1.1466047E1,1.4164655E1,8.520484E0,6.43776E1,5.9270245E1,1.4322912E1,4.4030266E1],"tree_param":{"num_deleted":"0","num_feature":"3","num_nodes":"43","size_leaf_vector":"1"}},{"base_weights":[-1.3586358E-3,-7.3361593E-1,5.350534E-1,-1.0799375E0,-2.1791488E-1,1.5486924E-1,1.1740978E-1,-1.16121545E-1,-8.6609775E-1,-8.6197555E-1,7.3885363E-1,5.236467E-1,-7.558567E-1,-1.158522E-1,-4.2477396E-1,-1.151369E-1,-2.7995852E-1,3.3704793E-1,1.1571801E-1,7.467997E-2,1.1780272E-1,-1.1506837E-1,-4.566297E-2,-1.2593749E-1,9.453889E-2,-1.1111861E-1,3.980558E-1,-2.1289493E-1,1.1890917E-1,-4.1544685E-1,1.1685128E0,-1.1179266E-1,1.1289724E-1,1.2000408E-1,-1.2573826E-1,-3.7083235E-2,1.09243885E-1,-9.439115E-2,1.0600626E-1,-1.3256662E-1,5.5637296E-2,2.4370453E-3,1.4395088E-1],"categories":[],"categories_nodes":[],"categories_segments":[],"categories_sizes":[],"default_left":[0,0,0,0,0,0,0,0,0,0,0,0,0,0,0,0,0,0,0,0,0,0,0,0,0,0,0,0,0,0,0,0,0,0,0,0,0,0,0,0,0,0,0],"id":12,"left_children":[1,3,5,7,9,11,-1,-1,13,15,17,19,21,-1,23,-1,25,27,-1,29,-1,-1,31,-1,33,-1,35,37,-1,39,41,-1,-1,-1,-1,-1,-1,-1,-1,-1,-1,-1,-1],"loss_changes":[4.231739E2,8.111951E1,1.5089499E2,3.7262573E0,1.1418065E2,1.3172635E2,0E0,0E0,9.692459E0,1.8304207E1,1.2161198E1,8.185755E1,3.1664627E1,0E0,1.4434986E1,0E0,2.1885164E1,1.8761307E1,0E0,8.974451E1,0E0,0E0,5.347767E1,0E0,3.3329693E1,0E0,1.198606E1,2.4127777E1,0E0,1.0309257E2,1.6019745E1,0E0,0E0,0E0,0E0,0E0,0E0,0E0,0E0,0E0,0E0,0E0,0E0],"parents":[2147483647,0,0,1,1,2,2,3,3,4,4,5,5,8,8,9,9,10,10,11,11,12,12,14,14,16,16,17,17,19,19,22,22,24,24,26,26,27,27,29,29,30,30],"right_children":[2,4,6,8,10,12,-1,-1,14,16,18,20,22,-1,24,-1,26,28,-1,30,-1,-1,32,-1,34,-1,36,38,-1,40,42,-1,-1,-1,-1,-1,-1,-1,-1,-1,-1,-1,-1],"split_conditions":[-2.1382825E-1,3E0,3E0,-5.778263E-1,-8.162918E-1,2E0,1.1740978E-1,-1.16121545E-1,1E0,1E0,4E0,7.935445E-1,1E0,-1.158522E-1,1E0,-1.151369E-1,-1.3464652E0,1E0,1.1571801E-1,1E0,1.1780272E-1,-1.1506837E-1,7.935445E-1,-1.2593749E-1,2E0,-1.1111861E-1,4E0,-4.038695E-1,1.1890917E-1,1E0,-3.2508792E-3,-1.1179266E-1,1.1289724E-1,1.2000408E-1,-1.2573826E-1,-3.7083235E-2,1.09243885E-1,-9.439115E-2,1.0600626E-1,-1.3256662E-1,5.5637296E-2,2.4370453E-3,1.4395088E-1],"split_indices":[0,2,2,0,0,2,0,0,1,1,2,0,1,0,2,0,0,1,0,1,0,0,0,0,2,0,2,0,0,2,0,0,0,0,0,0,0,0,0,0,0,0,0],"split_type":[0,0,0,0,0,0,0,0,0,0,0,0,0,0,0,0,0,0,0,0,0,0,0,0,0,0,0,0,0,0,0,0,0,0,0,0,0,0,0,0,0,0,0],"sum_hessian":[1.0753502E3,4.5451846E2,6.208318E2,2.7125903E2,1.8325941E2,3.9003323E2,2.3079858E2,1.933417E2,7.791733E1,1.0958798E2,7.367144E1,2.779207E2,1.1211256E2,4.5887104E1,3.2030224E1,7.2540695E1,3.704729E1,3.8498775E1,3.517266E1,1.654918E2,1.1242888E2,7.16558E1,4.045675E1,1.17390375E1,2.0291187E1,1.6356174E1,2.0691116E1,2.3853146E1,1.4645631E1,1.1471173E2,5.078007E1,2.1175247E1,1.9281504E1,1.1224753E1,9.066433E0,1.003991E1,1.0651206E1,1.531611E1,8.537036E0,5.904516E1,5.5666576E1,9.932993E0,4.0847076E1],"tree_param":{"num_deleted":"0","num_feature":"3","num_nodes":"43","size_leaf_vector":"1"}},{"base_weights":[-1.5053855E-3,-6.267833E-1,6.016762E-1,-1.0256032E0,-2.8816218E-2,2.8044236E-1,1.1531353E-1,-1.1539217E-1,-7.913042E-1,-8.408252E-1,8.4163827E-1,6.687763E-1,-6.9152945E-1,-1.1331717E-1,-3.2650042E-1,-1.1320839E-1,-2.68638E-1,5.1498246E-1,1.1369794E-1,2.6421723E-1,1.15642026E-1,-1.1294472E-1,1.0622625E-1,4.532903E-2,-1.19415045E-1,-1.08828716E-1,3.7860283E-1,-5.7579473E-2,1.1231394E-1,-2.015822E-1,1.3668296E-1,-1.0803389E-1,1.1054655E-1,-1.0404905E-1,1.1995603E-1,-3.4025766E-2,1.0668411E-1,-9.0455145E-2,1.1556325E-1,-1.3070162E-1,1.0282182E-1],"categories":[],"categories_nodes":[],"categories_segments":[],"categories_sizes":[],"default_left":[0,0,0,0,0,0,0,0,0,0,0,0,0,0,0,0,0,0,0,0,0,0,0,0,0,0,0,0,0,0,0,0,0,0,0,0,0,0,0,0,0],"id":13,"left_children":[1,3,5,7,9,11,-1,-1,13,15,17,19,21,-1,23,-1,25,27,-1,29,-1,-1,31,33,-1,-1,35,37,-1,39,-1,-1,-1,-1,-1,-1,-1,-1,-1,-1,-1],"loss_changes":[3.7708414E2,1.17043625E2,8.982646E1,7.939972E0,1.4026534E2,1.22339554E2,0E0,0E0,1.669352E1,1.680336E1,8.65609E0,4.5310852E1,3.2494587E1,0E0,1.5189489E1,0E0,1.9477478E1,1.6539433E1,0E0,6.5849045E1,0E0,0E0,4.121765E1,4.361414E1,0E0,0E0,1.0665036E1,2.7064024E1,0E0,1.24550285E2,0E0,0E0,0E0,0E0,0E0,0E0,0E0,0E0,0E0,0E0,0E0],"parents":[2147483647,0,0,1,1,2,2,3,3,4,4,5,5,8,8,9,9,10,10,11,11,12,12,14,14,16,16,17,17,19,19,22,22,23,23,26,26,27,27,29,29],"right_children":[2,4,6,8,10,12,-1,-1,14,16,18,20,22,-1,24,-1,26,28,-1,30,-1,-1,32,34,-1,-1,36,38,-1,40,-1,-1,-1,-1,-1,-1,-1,-1,-1,-1,-1],"split_conditions":[2.0303406E-2,3E0,3E0,1E0,-8.162918E-1,2E0,1.1531353E-1,-1.1539217E-1,-5.778263E-1,1E0,-4.038695E-1,7.935445E-1,1E0,-1.1331717E-1,2E0,-1.1320839E-1,-1.3464652E0,4E0,1.1369794E-1,1E0,1.15642026E-1,-1.1294472E-1,7.935445E-1,1E0,-1.19415045E-1,-1.08828716E-1,4E0,1E0,1.1231394E-1,1E0,1.3668296E-1,-1.0803389E-1,1.1054655E-1,-1.0404905E-1,1.1995603E-1,-3.4025766E-2,1.0668411E-1,-9.0455145E-2,1.1556325E-1,-1.3070162E-1,1.0282182E-1],"split_indices":[0,2,2,1,0,2,0,0,0,1,0,0,1,0,2,0,0,2,0,1,0,0,0,2,0,0,2,1,0,2,0,0,0,0,0,0,0,0,0,0,0],"split_type":[0,0,0,0,0,0,0,0,0,0,0,0,0,0,0,0,0,0,0,0,0,0,0,0,0,0,0,0,0,0,0,0,0,0,0,0,0,0,0,0,0],"sum_hessian":[9.978092E2,4.899116E2,5.078976E2,2.9346628E2,1.9644531E2,3.2189633E2,1.860013E2,1.8708208E2,1.0638422E2,1.0165233E2,9.479298E1,2.3022571E2,9.1670616E1,6.0470005E1,4.5914207E1,6.6714386E1,3.493794E1,4.6313065E1,4.847991E1,1.2667525E2,1.0355046E2,5.8914486E1,3.275613E1,3.280392E1,1.3110288E1,1.5115118E1,1.9822823E1,2.4320936E1,2.199213E1,8.962871E1,3.704654E1,1.49373455E1,1.7818787E1,1.6953655E1,1.5850265E1,9.943017E0,9.879806E0,1.4472063E1,9.848873E0,4.7167946E1,4.2460762E1],"tree_param":{"num_deleted":"0","num_feature":"3","num_nodes":"41","size_leaf_vector":"1"}},{"base_weights":[-1.5287842E-3,-6.296796E-1,5.743579E-1,-1.0219461E0,-5.0247375E-2,2.5292242E-1,1.1354716E-1,-1.1341353E-1,-8.170601E-1,-8.208909E-1,8.1104213E-1,6.244638E-1,-6.9104683E-1,-1.1156233E-1,-3.8817132E-1,-1.1149007E-1,-2.5768948E-1,5.01884E-1,1.1161158E-1,2.2853476E-1,1.1373643E-1,-1.11263536E-1,7.137869E-2,-1.23661816E-1,1.2710774E-1,-1.0672607E-1,3.6009374E-1,-5.3805143E-2,1.1017026E-1,-2.3805553E-1,1.3316032E-1,-1.0641517E-1,1.08405106E-1,1.16627574E-1,-1.16461694E-1,-3.1195477E-2,1.0431705E-1,-8.6625576E-2,1.1221068E-1,-1.2629665E-1,8.175101E-2],"categories":[],"categories_nodes":[],"categories_segments":[],"categories_sizes":[],"default_left":[0,0,0,0,0,0,0,0,0,0,0,0,0,0,0,0,0,0,0,0,0,0,0,0,0,0,0,0,0,0,0,0,0,0,0,0,0,0,0,0,0],"id":14,"left_children":[1,3,5,7,9,11,-1,-1,13,15,17,19,21,-1,23,-1,25,27,-1,29,-1,-1,31,-1,33,-1,35,37,-1,39,-1,-1,-1,-1,-1,-1,-1,-1,-1,-1,-1],"loss_changes":[3.342947E2,1.00412155E2,8.6668564E1,5.1305847E0,1.19797935E2,1.08388275E2,0E0,0E0,1.1964302E1,1.5480515E1,7.4812584E0,4.4700485E1,2.817569E1,0E0,1.819954E1,0E0,1.7369488E1,1.4779634E1,0E0,6.526965E1,0E0,0E0,3.8024216E1,0E0,3.7040558E1,0E0,9.511112E0,2.3784998E1,0E0,9.789638E1,0E0,0E0,0E0,0E0,0E0,0E0,0E0,0E0,0E0,0E0,0E0],"parents":[2147483647,0,0,1,1,2,2,3,3,4,4,5,5,8,8,9,9,10,10,11,11,12,12,14,14,16,16,17,17,19,19,22,22,24,24,26,26,27,27,29,29],"right_children":[2,4,6,8,10,12,-1,-1,14,16,18,20,22,-1,24,-1,26,28,-1,30,-1,-1,32,-1,34,-1,36,38,-1,40,-1,-1,-1,-1,-1,-1,-1,-1,-1,-1,-1],"split_conditions":[-1.8059662E-2,3E0,3E0,1E0,-8.162918E-1,2E0,1.1354716E-1,-1.1341353E-1,-5.778263E-1,1E0,-4.038695E-1,7.935445E-1,1E0,-1.1156233E-1,1E0,-1.1149007E-1,-1.3464652E0,4E0,1.1161158E-1,1E0,1.1373643E-1,-1.11263536E-1,7.935445E-1,-1.23661816E-1,2E0,-1.0672607E-1,4E0,1E0,1.1017026E-1,1E0,1.3316032E-1,-1.0641517E-1,1.08405106E-1,1.16627574E-1,-1.16461694E-1,-3.1195477E-2,1.0431705E-1,-8.6625576E-2,1.1221068E-1,-1.2629665E-1,8.175101E-2],"split_indices":[0,2,2,1,0,2,0,0,0,1,0,0,1,0,2,0,0,2,0,1,0,0,0,0,2,0,2,1,0,2,0,0,0,0,0,0,0,0,0,0,0],"split_type":[0,0,0,0,0,0,0,0,0,0,0,0,0,0,0,0,0,0,0,0,0,0,0,0,0,0,0,0,0,0,0,0,0,0,0,0,0,0,0,0,0],"sum_hessian":[9.221206E2,4.4100223E2,4.811184E2,2.6251797E2,1.7848424E2,3.068114E2,1.74307E2,1.667018E2,9.581618E1,9.422384E1,8.42604E1,2.2040114E2,8.641026E1,5.554697E1,4.0269203E1,6.1262966E1,3.2960873E1,4.316381E1,4.1096584E1,1.2519982E2,9.5201324E1,5.5346626E1,3.1063639E1,1.468663E1,2.5582573E1,1.3951122E1,1.900975E1,2.2878662E1,2.028515E1,8.853452E1,3.66653E1,1.4619575E1,1.6444065E1,1.4231067E1,1.1351507E1,9.856092E0,9.153658E0,1.368611E1,9.192552E0,4.4819824E1,4.37147E1],"tree_param":{"num_deleted":"0","num_feature":"3","num_nodes":"41","size_leaf_vector":"1"}},{"base_weights":[-1.6364201E-3,-6.032317E-1,5.772935E-1,-9.917366E-1,-2.619493E-2,2.680959E-1,1.1195936E-1,-1.12179816E-1,-7.5692004E-1,-8.0189335E-1,8.078238E-1,6.332914E-1,-6.70008E-1,-1.0998573E-1,-3.0690876E-1,-1.0994881E-1,-2.4703926E-1,4.8962402E-1,1.1011586E-1,2.4824233E-1,1.120458E-1,-1.09666996E-1,1.018586E-1,4.3728754E-2,-1.1338522E-1,-6.067014E-1,1.0420884E-1,-5.0049648E-2,1.0821029E-1,-1.7832899E-1,1.2800008E-1,-1.0411822E-1,1.0643504E-1,-9.488366E-2,1.1348152E-1,-1.0648979E-1,-7.038638E-3,-8.288849E-2,1.09160684E-1,-1.2295413E-1,9.248047E-2],"categories":[],"categories_nodes":[],"categories_segments":[],"categories_sizes":[],"default_left":[0,0,0,0,0,0,0,0,0,0,0,0,0,0,0,0,0,0,0,0,0,0,0,0,0,0,0,0,0,0,0,0,0,0,0,0,0,0,0,0,0],"id":15,"left_children":[1,3,5,7,9,11,-1,-1,13,15,17,19,21,-1,23,-1,25,27,-1,29,-1,-1,31,33,-1,35,-1,37,-1,39,-1,-1,-1,-1,-1,-1,-1,-1,-1,-1,-1],"loss_changes":[2.9728305E2,9.381427E1,7.2636566E1,6.790161E0,1.1027634E2,9.578279E1,0E0,0E0,1.38967705E1,1.4308491E1,7.129219E0,3.740059E1,2.5957367E1,0E0,1.2018286E1,0E0,1.5522618E1,1.3230368E1,0E0,5.0170788E1,0E0,0E0,3.2851448E1,3.351131E1,0E0,6.250819E0,0E0,2.0929672E1,0E0,9.5253204E1,0E0,0E0,0E0,0E0,0E0,0E0,0E0,0E0,0E0,0E0,0E0],"parents":[2147483647,0,0,1,1,2,2,3,3,4,4,5,5,8,8,9,9,10,10,11,11,12,12,14,14,16,16,17,17,19,19,22,22,23,23,25,25,27,27,29,29],"right_children":[2,4,6,8,10,12,-1,-1,14,16,18,20,22,-1,24,-1,26,28,-1,30,-1,-1,32,34,-1,36,-1,38,-1,40,-1,-1,-1,-1,-1,-1,-1,-1,-1,-1,-1],"split_conditions":[2.0303406E-2,3E0,3E0,1E0,-8.162918E-1,2E0,1.1195936E-1,-1.12179816E-1,-5.778263E-1,1E0,-4.038695E-1,7.935445E-1,1E0,-1.0998573E-1,2E0,-1.0994881E-1,-1.0052656E0,4E0,1.1011586E-1,1E0,1.120458E-1,-1.09666996E-1,7.935445E-1,1E0,-1.1338522E-1,4E0,1.0420884E-1,1E0,1.0821029E-1,1E0,1.2800008E-1,-1.0411822E-1,1.0643504E-1,-9.488366E-2,1.1348152E-1,-1.0648979E-1,-7.038638E-3,-8.288849E-2,1.09160684E-1,-1.2295413E-1,9.248047E-2],"split_indices":[0,2,2,1,0,2,0,0,0,1,0,0,1,0,2,0,0,2,0,1,0,0,0,2,0,2,0,1,0,2,0,0,0,0,0,0,0,0,0,0,0],"split_type":[0,0,0,0,0,0,0,0,0,0,0,0,0,0,0,0,0,0,0,0,0,0,0,0,0,0,0,0,0,0,0,0,0,0,0,0,0,0,0,0,0],"sum_hessian":[8.5157135E2,4.1759027E2,4.339811E2,2.4913503E2,1.6845523E2,2.7734473E2,1.5663637E2,1.578994E2,9.1235634E1,8.729916E1,8.115608E1,1.9986427E2,7.748046E1,5.095818E1,4.0277454E1,5.6183617E1,3.1115536E1,4.0208466E1,4.0947617E1,1.1247517E2,8.738911E1,4.9627335E1,2.7853125E1,2.894951E1,1.1327944E1,2.474198E1,6.373556E0,2.1521034E1,1.868743E1,8.016063E1,3.2314537E1,1.269499E1,1.5158135E1,1.5227433E1,1.3722077E1,1.2811227E1,1.1930753E1,1.2956265E1,8.56477E0,4.0987606E1,3.9173023E1],"tree_param":{"num_deleted":"0","num_feature":"3","num_nodes":"41","size_leaf_vector":"1"}},{"base_weights":[-1.6388719E-3,-5.916306E-1,5.6617105E-1,-9.763844E-1,-2.473798E-2,2.6177475E-1,1.1056093E-1,-1.10773064E-1,-7.4105936E-1,-7.806849E-1,7.92669E-1,6.166927E-1,-6.606924E-1,-1.08559385E-1,-2.9754913E-1,-1.08556926E-1,-2.3397419E-1,4.7804824E-1,1.0857927E-1,2.3909785E-1,1.10537045E-1,-1.0826222E-1,9.9766865E-2,4.3183155E-2,-1.10699095E-1,-1.0383221E-1,3.6130086E-1,-4.629343E-2,1.06401406E-1,-1.7195937E-1,1.2441808E-1,-1.0234783E-1,1.0460483E-1,-9.034969E-2,1.1073219E-1,-2.7509147E-2,1.0150436E-1,-7.923474E-2,1.0635835E-1,-1.1982454E-1,8.726918E-2],"categories":[],"categories_nodes":[],"categories_segments":[],"categories_sizes":[],"default_left":[0,0,0,0,0,0,0,0,0,0,0,0,0,0,0,0,0,0,0,0,0,0,0,0,0,0,0,0,0,0,0,0,0,0,0,0,0,0,0,0,0],"id":16,"left_children":[1,3,5,7,9,11,-1,-1,13,15,17,19,21,-1,23,-1,25,27,-1,29,-1,-1,31,33,-1,-1,35,37,-1,39,-1,-1,-1,-1,-1,-1,-1,-1,-1,-1,-1],"loss_changes":[2.6380463E2,8.4209274E1,6.560184E1,6.2890015E0,9.773291E1,8.482303E1,0E0,0E0,1.27294235E1,1.3439957E1,6.490654E0,3.4188644E1,2.3249054E1,0E0,1.0727718E1,0E0,1.5068652E1,1.1861811E1,0E0,4.4257202E1,0E0,0E0,2.9399124E1,2.9423199E1,0E0,0E0,7.9250374E0,1.8437082E1,0E0,8.3104385E1,0E0,0E0,0E0,0E0,0E0,0E0,0E0,0E0,0E0,0E0,0E0],"parents":[2147483647,0,0,1,1,2,2,3,3,4,4,5,5,8,8,9,9,10,10,11,11,12,12,14,14,16,16,17,17,19,19,22,22,23,23,26,26,27,27,29,29],"right_children":[2,4,6,8,10,12,-1,-1,14,16,18,20,22,-1,24,-1,26,28,-1,30,-1,-1,32,34,-1,-1,36,38,-1,40,-1,-1,-1,-1,-1,-1,-1,-1,-1,-1,-1],"split_conditions":[2.0303406E-2,3E0,3E0,1E0,-8.162918E-1,2E0,1.1056093E-1,-1.10773064E-1,-5.778263E-1,1E0,-4.038695E-1,7.935445E-1,1E0,-1.08559385E-1,2E0,-1.08556926E-1,-1.3464652E0,4E0,1.0857927E-1,1E0,1.10537045E-1,-1.0826222E-1,7.935445E-1,1E0,-1.10699095E-1,-1.0383221E-1,4E0,1E0,1.06401406E-1,1E0,1.2441808E-1,-1.0234783E-1,1.0460483E-1,-9.034969E-2,1.1073219E-1,-2.7509147E-2,1.0150436E-1,-7.923474E-2,1.0635835E-1,-1.1982454E-1,8.726918E-2],"split_indices":[0,2,2,1,0,2,0,0,0,1,0,0,1,0,2,0,0,2,0,1,0,0,0,2,0,0,2,1,0,2,0,0,0,0,0,0,0,0,0,0,0],"split_type":[0,0,0,0,0,0,0,0,0,0,0,0,0,0,0,0,0,0,0,0,0,0,0,0,0,0,0,0,0,0,0,0,0,0,0,0,0,0,0,0,0],"sum_hessian":[7.854692E2,3.851898E2,4.0027936E2,2.2902597E2,1.5616382E2,2.5683615E2,1.4344324E2,1.4460677E2,8.44192E1,8.115537E1,7.5008446E1,1.857143E2,7.112184E1,4.669621E1,3.7722992E1,5.1467712E1,2.9687658E1,3.744653E1,3.7561916E1,1.0560442E2,8.010987E1,4.546989E1,2.565195E1,2.7213987E1,1.0509003E1,1.230994E1,1.7377718E1,2.0248499E1,1.7198032E1,7.553936E1,3.0065058E1,1.1691935E1,1.3960017E1,1.4481713E1,1.2732275E1,9.099209E0,8.27851E0,1.2280022E1,7.9684772E0,3.8030457E1,3.7508907E1],"tree_param":{"num_deleted":"0","num_feature":"3","num_nodes":"41","size_leaf_vector":"1"}},{"base_weights":[-1.6592507E-3,-5.975123E-1,5.4209614E-1,-9.805791E-1,-4.459224E-2,2.3700653E-1,1.093302E-1,-1.0924319E-1,-7.793808E-1,-7.634012E-1,7.655306E-1,5.771808E-1,-6.6255885E-1,-1.0725959E-1,-3.7678066E-1,-1.07291095E-1,-2.2429654E-1,4.6703124E-1,1.06927864E-1,2.0837505E-1,1.0918265E-1,-1.0703526E-1,6.716353E-2,-1.1436548E-1,1.16040155E-1,-1.0205763E-1,3.4367153E-1,-4.2521093E-2,1.0471622E-1,-2.1258132E-1,1.23523496E-1,-1.0114067E-1,1.02888E-1,1.0817435E-1,-1.0808902E-1,-2.5195634E-2,9.944982E-2,-7.565886E-2,1.0375907E-1,-1.1693946E-1,6.779612E-2],"categories":[],"categories_nodes":[],"categories_segments":[],"categories_sizes":[],"default_left":[0,0,0,0,0,0,0,0,0,0,0,0,0,0,0,0,0,0,0,0,0,0,0,0,0,0,0,0,0,0,0,0,0,0,0,0,0,0,0,0,0],"id":17,"left_children":[1,3,5,7,9,11,-1,-1,13,15,17,19,21,-1,23,-1,25,27,-1,29,-1,-1,31,-1,33,-1,35,37,-1,39,-1,-1,-1,-1,-1,-1,-1,-1,-1,-1,-1],"loss_changes":[2.350981E2,7.328761E1,6.3542694E1,3.750229E0,8.370737E1,7.550676E1,0E0,0E0,8.632351E0,1.2463104E1,5.630577E0,3.368467E1,2.025587E1,0E0,1.2906439E1,0E0,1.3481058E1,1.0649235E1,0E0,4.57876E1,0E0,0E0,2.7239092E1,0E0,2.6002151E1,0E0,7.109552E0,1.625671E1,0E0,6.516727E1,0E0,0E0,0E0,0E0,0E0,0E0,0E0,0E0,0E0,0E0,0E0],"parents":[2147483647,0,0,1,1,2,2,3,3,4,4,5,5,8,8,9,9,10,10,11,11,12,12,14,14,16,16,17,17,19,19,22,22,24,24,26,26,27,27,29,29],"right_children":[2,4,6,8,10,12,-1,-1,14,16,18,20,22,-1,24,-1,26,28,-1,30,-1,-1,32,-1,34,-1,36,38,-1,40,-1,-1,-1,-1,-1,-1,-1,-1,-1,-1,-1],"split_conditions":[-1.8059662E-2,3E0,3E0,1E0,-8.162918E-1,2E0,1.093302E-1,-1.0924319E-1,-5.778263E-1,1E0,-4.038695E-1,7.935445E-1,1E0,-1.0725959E-1,1E0,-1.07291095E-1,-1.3464652E0,4E0,1.06927864E-1,1E0,1.0918265E-1,-1.0703526E-1,7.935445E-1,-1.1436548E-1,2E0,-1.0205763E-1,4E0,1E0,1.0471622E-1,1E0,1.23523496E-1,-1.0114067E-1,1.02888E-1,1.0817435E-1,-1.0808902E-1,-2.5195634E-2,9.944982E-2,-7.565886E-2,1.0375907E-1,-1.1693946E-1,6.779612E-2],"split_indices":[0,2,2,1,0,2,0,0,0,1,0,0,1,0,2,0,0,2,0,1,0,0,0,0,2,0,2,1,0,2,0,0,0,0,0,0,0,0,0,0,0],"split_type":[0,0,0,0,0,0,0,0,0,0,0,0,0,0,0,0,0,0,0,0,0,0,0,0,0,0,0,0,0,0,0,0,0,0,0,0,0,0,0,0,0],"sum_hessian":[7.236155E2,3.452204E2,3.7839508E2,2.034768E2,1.4174359E2,2.4449716E2,1.3389793E2,1.27927864E2,7.554894E1,7.513509E1,6.660849E1,1.776692E2,6.682795E1,4.274989E1,3.279905E1,4.710252E1,2.8032578E1,3.4874336E1,3.1734154E1,1.04317795E2,7.335141E1,4.2571022E1,2.425693E1,1.2315062E1,2.048399E1,1.133885E1,1.6693727E1,1.9059935E1,1.5814403E1,7.454954E1,2.9768253E1,1.1409474E1,1.2847455E1,1.1390323E1,9.093667E0,9.036506E0,7.657222E0,1.1654568E1,7.4053674E0,3.578665E1,3.8762886E1],"tree_param":{"num_deleted":"0","num_feature":"3","num_nodes":"41","size_leaf_vector":"1"}},{"base_weights":[-1.7778182E-3,-5.6291115E-1,5.566597E-1,-9.444176E-1,-5.8175484E-3,2.666249E-1,1.0817744E-1,-1.0880341E-1,-6.8937814E-1,-7.4648994E-1,7.7451396E-1,6.078568E-1,-6.381212E-1,-1.0606616E-1,-2.4338686E-1,-1.0613141E-1,-2.147893E-1,4.5646942E-1,1.0607018E-1,2.4872887E-1,1.0795941E-1,-1.05760254E-1,1.08114496E-1,9.179295E-2,-1.0590368E-1,-5.77427E-1,1.0098558E-1,-3.8722355E-2,1.03131466E-1,-2.9672846E-1,8.901134E-1,-9.883817E-2,1.0126211E-1,-7.1077056E-2,1.0593589E-1,-1.0243612E-1,-5.86098E-3,-7.215821E-2,1.0132622E-1,-1.14865996E-1,1.2140007E-1,-9.657784E-2,1.1540709E-1],"categories":[],"categories_nodes":[],"categories_segments":[],"categories_sizes":[],"default_left":[0,0,0,0,0,0,0,0,0,0,0,0,0,0,0,0,0,0,0,0,0,0,0,0,0,0,0,0,0,0,0,0,0,0,0,0,0,0,0,0,0,0,0],"id":18,"left_children":[1,3,5,7,9,11,-1,-1,13,15,17,19,21,-1,23,-1,25,27,-1,29,-1,-1,31,33,-1,35,-1,37,-1,39,41,-1,-1,-1,-1,-1,-1,-1,-1,-1,-1,-1,-1],"loss_changes":[2.0952023E2,7.087658E1,5.0751038E1,6.5001526E0,7.950862E1,6.744682E1,0E0,0E0,1.2001839E1,1.158527E1,5.6135483E0,2.6538837E1,1.8888279E1,0E0,9.647556E0,0E0,1.2795774E1,9.571976E0,0E0,3.2149357E1,0E0,0E0,2.3305159E1,2.0693611E1,0E0,5.0072107E0,0E0,1.434625E1,0E0,6.575068E1,2.175647E1,0E0,0E0,0E0,0E0,0E0,0E0,0E0,0E0,0E0,0E0,0E0,0E0],"parents":[2147483647,0,0,1,1,2,2,3,3,4,4,5,5,8,8,9,9,10,10,11,11,12,12,14,14,16,16,17,17,19,19,22,22,23,23,25,25,27,27,29,29,30,30],"right_children":[2,4,6,8,10,12,-1,-1,14,16,18,20,22,-1,24,-1,26,28,-1,30,-1,-1,32,34,-1,36,-1,38,-1,40,42,-1,-1,-1,-1,-1,-1,-1,-1,-1,-1,-1,-1],"split_conditions":[4.223076E-2,3E0,3E0,1E0,-8.162918E-1,2E0,1.0817744E-1,-1.0880341E-1,-5.778263E-1,1E0,-4.038695E-1,7.935445E-1,1E0,-1.0606616E-1,2E0,-1.0613141E-1,-1.0052656E0,4E0,1.0607018E-1,1E0,1.0795941E-1,-1.05760254E-1,7.935445E-1,1E0,-1.0590368E-1,4E0,1.0098558E-1,1E0,1.03131466E-1,1E0,1.08411044E-1,-9.883817E-2,1.0126211E-1,-7.1077056E-2,1.0593589E-1,-1.0243612E-1,-5.86098E-3,-7.215821E-2,1.0132622E-1,-1.14865996E-1,1.2140007E-1,-9.657784E-2,1.1540709E-1],"split_indices":[0,2,2,1,0,2,0,0,0,1,0,0,1,0,2,0,0,2,0,2,0,0,0,2,0,2,0,1,0,1,0,0,0,0,0,0,0,0,0,0,0,0,0],"split_type":[0,0,0,0,0,0,0,0,0,0,0,0,0,0,0,0,0,0,0,0,0,0,0,0,0,0,0,0,0,0,0,0,0,0,0,0,0,0,0,0,0,0,0],"sum_hessian":[6.666292E2,3.3250803E2,3.341212E2,1.9694307E2,1.3556497E2,2.1621025E2,1.1791095E2,1.2390448E2,7.303859E1,6.957212E1,6.599285E1,1.5723573E2,5.8974514E1,3.910546E1,3.3933125E1,4.3072483E1,2.6499634E1,3.2485863E1,3.3506992E1,9.014028E1,6.709545E1,3.748553E1,2.1488983E1,2.467907E1,9.254056E0,2.085316E1,5.646473E0,1.7953085E1,1.4532778E1,4.9003357E1,4.113692E1,9.671676E0,1.18173065E1,1.3634835E1,1.1044235E1,1.0679183E1,1.0173978E1,1.1076942E1,6.876142E0,3.1486904E1,1.7516453E1,4.7911797E0,3.634574E1],"tree_param":{"num_deleted":"0","num_feature":"3","num_nodes":"43","size_leaf_vector":"1"}},{"base_weights":[-1.7382415E-3,-5.791779E-1,5.251158E-1,-9.595448E-1,-4.073542E-2,2.2882144E-1,1.07204296E-1,-1.07127145E-1,-7.604523E-1,-7.275046E-1,7.3897266E-1,5.526561E-1,-6.469713E-1,-1.04961686E-1,-3.7426654E-1,-1.05060734E-1,-2.0350072E-1,4.135308E-1,1.0124796E-1,1.9882306E-1,1.06847666E-1,-1.0477406E-1,6.4506404E-2,-1.0965084E-1,1.09845266E-1,-9.9604696E-2,3.4463748E-1,-1.4243464E-1,1.00757234E-1,-2.0226336E-1,1.1868024E-1,-9.803163E-2,9.970797E-2,1.0364354E-1,-1.03324786E-1,-2.214589E-2,9.700264E-2,-9.76277E-2,9.831244E-2,-1.1236735E-1,6.0605448E-2],"categories":[],"categories_nodes":[],"categories_segments":[],"categories_sizes":[],"default_left":[0,0,0,0,0,0,0,0,0,0,0,0,0,0,0,0,0,0,0,0,0,0,0,0,0,0,0,0,0,0,0,0,0,0,0,0,0,0,0,0,0],"id":19,"left_children":[1,3,5,7,9,11,-1,-1,13,15,17,19,21,-1,23,-1,25,27,-1,29,-1,-1,31,-1,33,-1,35,37,-1,39,-1,-1,-1,-1,-1,-1,-1,-1,-1,-1,-1],"loss_changes":[1.8708058E2,6.0047485E1,5.1863235E1,3.0087433E0,6.613308E1,5.9870026E1,0E0,0E0,6.8917084E0,1.0898651E1,4.7317867E0,2.7845879E1,1.6350563E1,0E0,1.04296055E1,0E0,1.1757634E1,9.428486E0,0E0,3.685979E1,0E0,0E0,2.194451E1,0E0,2.0730637E1,0E0,5.9767394E0,1.5411742E1,0E0,5.027152E1,0E0,0E0,0E0,0E0,0E0,0E0,0E0,0E0,0E0,0E0,0E0],"parents":[2147483647,0,0,1,1,2,2,3,3,4,4,5,5,8,8,9,9,10,10,11,11,12,12,14,14,16,16,17,17,19,19,22,22,24,24,26,26,27,27,29,29],"right_children":[2,4,6,8,10,12,-1,-1,14,16,18,20,22,-1,24,-1,26,28,-1,30,-1,-1,32,-1,34,-1,36,38,-1,40,-1,-1,-1,-1,-1,-1,-1,-1,-1,-1,-1],"split_conditions":[-1.8059662E-2,3E0,3E0,1E0,-8.162918E-1,2E0,1.07204296E-1,-1.07127145E-1,-5.778263E-1,1E0,-4.1973132E-1,7.935445E-1,1E0,-1.04961686E-1,1E0,-1.05060734E-1,-1.3464652E0,4E0,1.0124796E-1,1E0,1.06847666E-1,-1.0477406E-1,7.935445E-1,-1.0965084E-1,2E0,-9.9604696E-2,4E0,1E0,1.00757234E-1,1E0,1.1868024E-1,-9.803163E-2,9.970797E-2,1.0364354E-1,-1.03324786E-1,-2.214589E-2,9.700264E-2,-9.76277E-2,9.831244E-2,-1.1236735E-1,6.0605448E-2],"split_indices":[0,2,2,1,0,2,0,0,0,1,0,0,1,0,2,0,0,2,0,1,0,0,0,0,2,0,2,1,0,2,0,0,0,0,0,0,0,0,0,0,0],"split_type":[0,0,0,0,0,0,0,0,0,0,0,0,0,0,0,0,0,0,0,0,0,0,0,0,0,0,0,0,0,0,0,0,0,0,0,0,0,0,0,0,0],"sum_hessian":[6.1293896E2,2.923833E2,3.2055566E2,1.7088474E2,1.2149857E2,2.0883759E2,1.1171808E2,1.0665267E2,6.4232056E1,6.463491E1,5.6863663E1,1.5273207E2,5.6105522E1,3.5747482E1,2.8484577E1,3.9360268E1,2.5274643E1,2.7113571E1,2.9750092E1,9.141223E1,6.1319836E1,3.5587025E1,2.0518496E1,1.0923267E1,1.756131E1,9.999435E0,1.52752075E1,1.4398343E1,1.2715229E1,6.558301E1,2.5829222E1,9.652724E0,1.0865772E1,9.750705E0,7.8106046E0,8.356691E0,6.918515E0,8.347176E0,6.0511675E0,3.046523E1,3.511778E1],"tree_param":{"num_deleted":"0","num_feature":"3","num_nodes":"41","size_leaf_vector":"1"}},{"base_weights":[-1.9675891E-3,-5.217887E-1,5.7156175E-1,-9.0682006E-1,3.868424E-2,3.050623E-1,1.06195286E-1,-1.087276E-1,-5.9050554E-1,-7.115016E-1,7.739656E-1,6.511012E-1,-6.0847E-1,-7.397043E-1,9.584012E-1,-1.04064144E-1,-1.947701E-1,4.3359306E-1,1.04308955E-1,2.5174826E-1,1.0999129E-1,-1.0349832E-1,1.2438718E-1,-1.0393103E-1,-3.5649008E-1,1.27881E-1,8.342878E-3,-5.505343E-1,9.82689E-2,-3.99212E-2,1.0019803E-1,-3.4170777E-1,1.04468524E-1,-9.531571E-2,9.820917E-2,-1.0140832E-1,9.7342245E-3,-9.979167E-2,-5.0806487E-3,-6.7556776E-2,9.6856534E-2,-1.107548E-1,1.11699976E-1],"categories":[],"categories_nodes":[],"categories_segments":[],"categories_sizes":[],"default_left":[0,0,0,0,0,0,0,0,0,0,0,0,0,0,0,0,0,0,0,0,0,0,0,0,0,0,0,0,0,0,0,0,0,0,0,0,0,0,0,0,0,0,0],"id":20,"left_children":[1,3,5,7,9,11,-1,-1,13,15,17,19,21,23,25,-1,27,29,-1,31,-1,-1,33,-1,35,-1,-1,37,-1,39,-1,41,-1,-1,-1,-1,-1,-1,-1,-1,-1,-1,-1],"loss_changes":[1.6879164E2,6.412437E1,3.485456E1,9.409164E0,6.778953E1,5.5970833E1,0E0,0E0,1.5996708E1,1.0147968E1,5.230709E0,2.2663055E1,1.5387011E1,6.62228E0,1.6449275E0,0E0,1.0976242E1,7.87333E0,0E0,3.283727E1,0E0,0E0,1.8358416E1,0E0,8.5283985E0,0E0,0E0,4.369669E0,0E0,1.1449046E1,0E0,4.618023E1,0E0,0E0,0E0,0E0,0E0,0E0,0E0,0E0,0E0,0E0,0E0],"parents":[2147483647,0,0,1,1,2,2,3,3,4,4,5,5,8,8,9,9,10,10,11,11,12,12,13,13,14,14,16,16,17,17,19,19,22,22,24,24,27,27,29,29,31,31],"right_children":[2,4,6,8,10,12,-1,-1,14,16,18,20,22,24,26,-1,28,30,-1,32,-1,-1,34,-1,36,-1,-1,38,-1,40,-1,42,-1,-1,-1,-1,-1,-1,-1,-1,-1,-1,-1],"split_conditions":[1.08411044E-1,3E0,3E0,1E0,-8.162918E-1,2E0,1.06195286E-1,-1.087276E-1,-3.2508792E-3,1E0,-4.038695E-1,1E0,1E0,-5.778263E-1,1E0,-1.04064144E-1,-1.0052656E0,4E0,1.04308955E-1,7.935445E-1,1.0999129E-1,-1.0349832E-1,7.935445E-1,-1.0393103E-1,1E0,1.27881E-1,8.342878E-3,4E0,9.82689E-2,1E0,1.0019803E-1,1E0,1.04468524E-1,-9.531571E-2,9.820917E-2,-1.0140832E-1,9.7342245E-3,-9.979167E-2,-5.0806487E-3,-6.7556776E-2,9.6856534E-2,-1.107548E-1,1.11699976E-1],"split_indices":[0,2,2,1,0,2,0,0,0,1,0,2,1,0,2,0,0,2,0,0,0,0,0,0,2,0,0,2,0,1,0,1,0,0,0,0,0,0,0,0,0,0,0],"split_type":[0,0,0,0,0,0,0,0,0,0,0,0,0,0,0,0,0,0,0,0,0,0,0,0,0,0,0,0,0,0,0,0,0,0,0,0,0,0,0,0,0,0,0],"sum_hessian":[5.641626E2,2.9598517E2,2.681774E2,1.7508682E2,1.2089836E2,1.7480368E2,9.33737E1,1.0993314E2,6.515367E1,5.985867E1,6.1039692E1,1.26988655E2,4.7815033E1,5.9905678E1,5.2479906E0,3.594749E1,2.391118E1,2.8105099E1,3.2934593E1,6.802283E1,5.8965828E1,2.9964079E1,1.7850956E1,3.2659565E1,2.7246115E1,3.5034928E0,1.7444979E0,1.87718E1,5.1393805E0,1.5839353E1,1.2265746E1,3.923061E1,2.8792215E1,7.8622413E0,9.988713E0,1.0621422E1,1.6624695E1,9.378635E0,9.393165E0,9.91811E0,5.921242E0,2.588263E1,1.334798E1],"tree_param":{"num_deleted":"0","num_feature":"3","num_nodes":"43","size_leaf_vector":"1"}},{"base_weights":[-1.6238645E-3,-5.102897E-1,5.6551206E-1,-8.88149E-1,3.8864713E-2,3.0135775E-1,1.053563E-1,-1.0775707E-1,-5.666456E-1,-6.9331986E-1,7.6177156E-1,6.431108E-1,-6.0194135E-1,-7.1375006E-1,9.039305E-1,-1.0312857E-1,-1.844303E-1,4.2405537E-1,1.03301995E-1,2.4898885E-1,1.0866876E-1,-1.0252257E-1,1.2188478E-1,-1.02960885E-1,-3.3399E-1,1.2147874E-1,7.817225E-3,-9.733673E-2,3.4531406E-1,-3.5701673E-2,9.880554E-2,-3.3430362E-1,1.0336786E-1,-9.380331E-2,9.675165E-2,-9.851565E-2,8.823162E-3,-1.9438166E-2,9.471413E-2,-6.4185075E-2,9.476113E-2,-1.08886376E-1,1.09126866E-1],"categories":[],"categories_nodes":[],"categories_segments":[],"categories_sizes":[],"default_left":[0,0,0,0,0,0,0,0,0,0,0,0,0,0,0,0,0,0,0,0,0,0,0,0,0,0,0,0,0,0,0,0,0,0,0,0,0,0,0,0,0,0,0],"id":21,"left_children":[1,3,5,7,9,11,-1,-1,13,15,17,19,21,23,25,-1,27,29,-1,31,-1,-1,33,-1,35,-1,-1,-1,37,39,-1,41,-1,-1,-1,-1,-1,-1,-1,-1,-1,-1,-1],"loss_changes":[1.5034415E2,5.704354E1,3.1450684E1,9.303528E0,6.030949E1,5.0175766E1,0E0,0E0,1.4157871E1,9.550365E0,4.8116837E0,2.0270374E1,1.3846905E1,6.53438E0,1.4763536E0,0E0,1.0291336E1,7.094283E0,0E0,2.9415787E1,0E0,0E0,1.6521168E1,0E0,7.652503E0,0E0,0E0,0E0,5.0526247E0,1.0122489E1,0E0,4.1190094E1,0E0,0E0,0E0,0E0,0E0,0E0,0E0,0E0,0E0,0E0,0E0],"parents":[2147483647,0,0,1,1,2,2,3,3,4,4,5,5,8,8,9,9,10,10,11,11,12,12,13,13,14,14,16,16,17,17,19,19,22,22,24,24,28,28,29,29,31,31],"right_children":[2,4,6,8,10,12,-1,-1,14,16,18,20,22,24,26,-1,28,30,-1,32,-1,-1,34,-1,36,-1,-1,-1,38,40,-1,42,-1,-1,-1,-1,-1,-1,-1,-1,-1,-1,-1],"split_conditions":[1.08411044E-1,3E0,3E0,1E0,-8.162918E-1,2E0,1.053563E-1,-1.0775707E-1,-3.2508792E-3,1E0,-4.038695E-1,1E0,1E0,-5.778263E-1,1E0,-1.0312857E-1,-1.3464652E0,4E0,1.03301995E-1,7.935445E-1,1.0866876E-1,-1.0252257E-1,7.935445E-1,-1.02960885E-1,1E0,1.2147874E-1,7.817225E-3,-9.733673E-2,4E0,1E0,9.880554E-2,1E0,1.0336786E-1,-9.380331E-2,9.675165E-2,-9.851565E-2,8.823162E-3,-1.9438166E-2,9.471413E-2,-6.4185075E-2,9.476113E-2,-1.08886376E-1,1.09126866E-1],"split_indices":[0,2,2,1,0,2,0,0,0,1,0,2,1,0,2,0,0,2,0,0,0,0,0,0,2,0,0,0,2,1,0,1,0,0,0,0,0,0,0,0,0,0,0],"split_type":[0,0,0,0,0,0,0,0,0,0,0,0,0,0,0,0,0,0,0,0,0,0,0,0,0,0,0,0,0,0,0,0,0,0,0,0,0,0,0,0,0,0,0],"sum_hessian":[5.1915454E2,2.737382E2,2.4541634E2,1.617943E2,1.11943886E2,1.6028217E2,8.513418E1,1.0033047E2,6.1463833E1,5.56354E1,5.630849E1,1.1649545E2,4.378671E1,5.634244E1,5.1213923E0,3.2815376E1,2.2820023E1,2.6223015E1,3.0085474E1,6.251321E1,5.3982243E1,2.7366644E1,1.6420063E1,2.9824892E1,2.651755E1,3.3784547E0,1.7429377E0,8.83091E0,1.3989113E1,1.4962612E1,1.1260403E1,3.6187504E1,2.6325708E1,7.2382927E0,9.181771E0,9.90634E0,1.6611208E1,7.732192E0,6.2569213E0,9.471376E0,5.4912357E0,2.3817183E1,1.2370322E1],"tree_param":{"num_deleted":"0","num_feature":"3","num_nodes":"43","size_leaf_vector":"1"}},{"base_weights":[-1.2871672E-3,-4.9927706E-1,5.599419E-1,-8.6967707E-1,3.907978E-2,2.9794332E-1,1.04586326E-1,-1.0686197E-1,-5.4326546E-1,-6.779039E-1,7.4982125E-1,6.3587356E-1,-5.956607E-1,-7.008848E-1,7.620276E-1,-1.02242425E-1,-1.763934E-1,3.7425533E-1,9.9514075E-2,2.4656315E-1,1.0745575E-1,-1.01592086E-1,1.1939418E-1,-1.0203947E-1,-3.267864E-1,1.0870757E-1,-5.447602E-2,-5.2595645E-1,9.569314E-2,-1.5937467E-1,9.660002E-2,-3.2740888E-1,1.02325715E-1,-9.2308566E-2,9.5323235E-2,-1.0276214E-1,8.960089E-3,-9.733392E-2,-4.3880525E-3,-9.3772076E-2,9.192967E-2,-1.07174516E-1,1.06768206E-1],"categories":[],"categories_nodes":[],"categories_segments":[],"categories_sizes":[],"default_left":[0,0,0,0,0,0,0,0,0,0,0,0,0,0,0,0,0,0,0,0,0,0,0,0,0,0,0,0,0,0,0,0,0,0,0,0,0,0,0,0,0,0,0],"id":22,"left_children":[1,3,5,7,9,11,-1,-1,13,15,17,19,21,23,25,-1,27,29,-1,31,-1,-1,33,-1,35,-1,-1,37,-1,39,-1,41,-1,-1,-1,-1,-1,-1,-1,-1,-1,-1,-1],"loss_changes":[1.3402213E2,5.069911E1,2.8390747E1,9.196518E0,5.3769024E1,4.5032955E1,0E0,0E0,1.2682848E1,8.900148E0,4.5071163E0,1.8142338E1,1.2469949E1,6.0263977E0,3.498157E0,0E0,9.460659E0,7.267874E0,0E0,2.637056E1,0E0,0E0,1.4880253E1,0E0,7.673914E0,0E0,0E0,3.823306E0,0E0,1.1528377E1,0E0,3.6804802E1,0E0,0E0,0E0,0E0,0E0,0E0,0E0,0E0,0E0,0E0,0E0],"parents":[2147483647,0,0,1,1,2,2,3,3,4,4,5,5,8,8,9,9,10,10,11,11,12,12,13,13,14,14,16,16,17,17,19,19,22,22,24,24,27,27,29,29,31,31],"right_children":[2,4,6,8,10,12,-1,-1,14,16,18,20,22,24,26,-1,28,30,-1,32,-1,-1,34,-1,36,-1,-1,38,-1,40,-1,42,-1,-1,-1,-1,-1,-1,-1,-1,-1,-1,-1],"split_conditions":[1.08411044E-1,3E0,3E0,1E0,-8.162918E-1,2E0,1.04586326E-1,-1.0686197E-1,-1.8059662E-2,1E0,-4.1973132E-1,1E0,1E0,-5.778263E-1,2E0,-1.02242425E-1,-1.0052656E0,4E0,9.9514075E-2,7.935445E-1,1.0745575E-1,-1.01592086E-1,7.935445E-1,-1.0203947E-1,1E0,1.0870757E-1,-5.447602E-2,4E0,9.569314E-2,1E0,9.660002E-2,1E0,1.02325715E-1,-9.2308566E-2,9.5323235E-2,-1.0276214E-1,8.960089E-3,-9.733392E-2,-4.3880525E-3,-9.3772076E-2,9.192967E-2,-1.07174516E-1,1.06768206E-1],"split_indices":[0,2,2,1,0,2,0,0,0,1,0,2,1,0,2,0,0,2,0,0,0,0,0,0,2,0,0,2,0,1,0,1,0,0,0,0,0,0,0,0,0,0,0],"split_type":[0,0,0,0,0,0,0,0,0,0,0,0,0,0,0,0,0,0,0,0,0,0,0,0,0,0,0,0,0,0,0,0,0,0,0,0,0,0,0,0,0,0,0],"sum_hessian":[4.7752975E2,2.5307849E2,2.2445126E2,1.4956169E2,1.035168E2,1.4687338E2,7.757788E1,9.151247E1,5.804922E1,5.1555103E1,5.1961693E1,1.0678093E2,4.0092453E1,5.2207947E1,5.8412747E0,2.9945139E1,2.1609964E1,2.1528597E1,3.0433096E1,5.7401752E1,4.937918E1,2.49864E1,1.51060505E1,2.7226625E1,2.4981323E1,4.812382E0,1.0288922E0,1.6925406E1,4.6845593E0,1.1704372E1,9.824225E0,3.334124E1,2.4060513E1,6.6655836E0,8.440467E0,8.763406E0,1.6217916E1,8.250035E0,8.675369E0,6.87453E0,4.8298426E0,2.1892498E1,1.1448742E1],"tree_param":{"num_deleted":"0","num_feature":"3","num_nodes":"43","size_leaf_vector":"1"}},{"base_weights":[-1.2235179E-3,-4.889472E-1,5.547769E-1,-8.528117E-1,3.8793363E-2,2.947724E-1,1.03875056E-1,-1.0603241E-1,-5.231774E-1,-6.6026175E-1,7.3765415E-1,6.2928104E-1,-5.895659E-1,-1.0115623E-1,-9.752994E-2,-1.0139536E-1,-1.6690932E-1,4.0207118E-1,1.0146352E-1,2.4442568E-1,1.0633627E-1,-1.0069646E-1,1.16903454E-1,2.9154265E-1,-1.0226029E-1,-9.5191926E-2,3.456601E-1,-3.70832E-2,9.612488E-2,-3.2092294E-1,1.01329744E-1,-9.082329E-2,9.391355E-2,-3.47621E-2,1.0154255E-1,-1.7034234E-2,9.2537E-2,-5.9931226E-2,9.078523E-2,-1.0559163E-1,1.0458404E-1],"categories":[],"categories_nodes":[],"categories_segments":[],"categories_sizes":[],"default_left":[0,0,0,0,0,0,0,0,0,0,0,0,0,0,0,0,0,0,0,0,0,0,0,0,0,0,0,0,0,0,0,0,0,0,0,0,0,0,0,0,0],"id":23,"left_children":[1,3,5,7,9,11,-1,-1,13,15,17,19,21,-1,23,-1,25,27,-1,29,-1,-1,31,33,-1,-1,35,37,-1,39,-1,-1,-1,-1,-1,-1,-1,-1,-1,-1,-1],"loss_changes":[1.1964592E2,4.516627E1,2.5638096E1,8.964371E0,4.7814636E1,4.04599E1,0E0,0E0,1.1487606E1,8.373764E0,4.1388493E0,1.6247078E1,1.123729E1,0E0,1.1415067E1,0E0,9.036441E0,5.873922E0,0E0,2.3655787E1,0E0,0E0,1.3412893E1,1.07728615E1,0E0,0E0,4.293272E0,8.130321E0,0E0,3.29385E1,0E0,0E0,0E0,0E0,0E0,0E0,0E0,0E0,0E0,0E0,0E0],"parents":[2147483647,0,0,1,1,2,2,3,3,4,4,5,5,8,8,9,9,10,10,11,11,12,12,14,14,16,16,17,17,19,19,22,22,23,23,26,26,27,27,29,29],"right_children":[2,4,6,8,10,12,-1,-1,14,16,18,20,22,-1,24,-1,26,28,-1,30,-1,-1,32,34,-1,-1,36,38,-1,40,-1,-1,-1,-1,-1,-1,-1,-1,-1,-1,-1],"split_conditions":[1.08411044E-1,3E0,3E0,1E0,-8.162918E-1,2E0,1.03875056E-1,-1.0603241E-1,-5.778263E-1,1E0,-4.038695E-1,1E0,1E0,-1.0115623E-1,2E0,-1.0139536E-1,-1.3464652E0,4E0,1.0146352E-1,7.935445E-1,1.0633627E-1,-1.0069646E-1,7.935445E-1,1E0,-1.0226029E-1,-9.5191926E-2,4E0,1E0,9.612488E-2,1E0,1.01329744E-1,-9.082329E-2,9.391355E-2,-3.47621E-2,1.0154255E-1,-1.7034234E-2,9.2537E-2,-5.9931226E-2,9.078523E-2,-1.0559163E-1,1.0458404E-1],"split_indices":[0,2,2,1,0,2,0,0,0,1,0,2,1,0,2,0,0,2,0,0,0,0,0,2,0,0,2,1,0,1,0,0,0,0,0,0,0,0,0,0,0],"split_type":[0,0,0,0,0,0,0,0,0,0,0,0,0,0,0,0,0,0,0,0,0,0,0,0,0,0,0,0,0,0,0,0,0,0,0,0,0,0,0,0,0],"sum_hessian":[4.3921332E2,2.340368E2,2.0517653E2,1.3816167E2,9.587514E1,1.3451843E2,7.06581E1,8.342626E1,5.47354E1,4.7958515E1,4.791662E1,9.780954E1,3.6708897E1,2.484821E1,2.988719E1,2.7318346E1,2.0640171E1,2.2774843E1,2.5141775E1,5.2672962E1,4.5136578E1,2.280803E1,1.39008665E1,2.1520723E1,8.366467E0,7.814682E0,1.2825489E1,1.3279427E1,9.495416E0,3.068961E1,2.1983353E1,6.1404843E0,7.7603817E0,1.1705209E1,9.815515E0,7.1592064E0,5.6662827E0,8.555021E0,4.7244053E0,2.010522E1,1.058439E1],"tree_param":{"num_deleted":"0","num_feature":"3","num_nodes":"41","size_leaf_vector":"1"}},{"base_weights":[-9.6390466E-4,-4.8002747E-1,5.499526E-1,-8.4025216E-1,3.913416E-2,2.9180536E-1,1.0321335E-1,-1.0525967E-1,-5.095036E-1,-6.452219E-1,7.2601897E-1,6.2324077E-1,-5.8360225E-1,-6.739996E-1,7.5746137E-1,-1.0057805E-1,-1.595068E-1,3.9318088E-1,1.00585066E-1,2.4253994E-1,1.0529625E-1,-9.982628E-2,1.144021E-1,-1.003017E-1,-3.1944913E-1,1.0511779E-1,2.173485E-4,-5.033947E-1,9.321709E-2,-3.239107E-2,9.480773E-2,-3.147598E-1,1.00369014E-1,-8.934073E-2,9.251376E-2,-9.997139E-2,7.906827E-3,-9.500157E-2,-3.7726872E-3,-5.6704547E-2,8.88698E-2,-1.0411427E-1,1.0254144E-1],"categories":[],"categories_nodes":[],"categories_segments":[],"categories_sizes":[],"default_left":[0,0,0,0,0,0,0,0,0,0,0,0,0,0,0,0,0,0,0,0,0,0,0,0,0,0,0,0,0,0,0,0,0,0,0,0,0,0,0,0,0,0,0],"id":24,"left_children":[1,3,5,7,9,11,-1,-1,13,15,17,19,21,23,25,-1,27,29,-1,31,-1,-1,33,-1,35,-1,-1,37,-1,39,-1,41,-1,-1,-1,-1,-1,-1,-1,-1,-1,-1,-1],"loss_changes":[1.06952126E2,4.0568924E1,2.3160225E1,8.454086E0,4.2654976E1,3.6386395E1,0E0,0E0,1.1345462E1,7.8052025E0,3.819973E0,1.4556934E1,1.0132502E1,5.1090126E0,1.4274948E0,0E0,8.190529E0,5.3000956E0,0E0,2.1232176E1,0E0,0E0,1.2099302E1,0E0,6.5500603E0,0E0,0E0,3.3520608E0,0E0,7.199238E0,0E0,2.9520065E1,0E0,0E0,0E0,0E0,0E0,0E0,0E0,0E0,0E0,0E0,0E0],"parents":[2147483647,0,0,1,1,2,2,3,3,4,4,5,5,8,8,9,9,10,10,11,11,12,12,13,13,14,14,16,16,17,17,19,19,22,22,24,24,27,27,29,29,31,31],"right_children":[2,4,6,8,10,12,-1,-1,14,16,18,20,22,24,26,-1,28,30,-1,32,-1,-1,34,-1,36,-1,-1,38,-1,40,-1,42,-1,-1,-1,-1,-1,-1,-1,-1,-1,-1,-1],"split_conditions":[1.08411044E-1,3E0,3E0,1E0,-8.162918E-1,2E0,1.0321335E-1,-1.0525967E-1,-1.8059662E-2,1E0,-4.038695E-1,1E0,1E0,-5.778263E-1,1E0,-1.0057805E-1,-1.0052656E0,4E0,1.00585066E-1,7.935445E-1,1.0529625E-1,-9.982628E-2,7.935445E-1,-1.003017E-1,1E0,1.0511779E-1,2.173485E-4,4E0,9.321709E-2,1E0,9.480773E-2,1E0,1.00369014E-1,-8.934073E-2,9.251376E-2,-9.997139E-2,7.906827E-3,-9.500157E-2,-3.7726872E-3,-5.6704547E-2,8.88698E-2,-1.0411427E-1,1.0254144E-1],"split_indices":[0,2,2,1,0,2,0,0,0,1,0,2,1,0,2,0,0,2,0,0,0,0,0,0,2,0,0,2,0,1,0,1,0,0,0,0,0,0,0,0,0,0,0],"split_type":[0,0,0,0,0,0,0,0,0,0,0,0,0,0,0,0,0,0,0,0,0,0,0,0,0,0,0,0,0,0,0,0,0,0,0,0,0,0,0,0,0,0,0],"sum_hessian":[4.0323804E2,2.157531E2,1.8748494E2,1.2700861E2,8.8744484E1,1.231557E2,6.432924E1,7.602024E1,5.0988377E1,4.448445E1,4.426003E1,8.954239E1,3.3613316E1,4.5543297E1,5.4450793E0,2.4917126E1,1.9567327E1,2.1313883E1,2.2946148E1,4.830883E1,4.1233555E1,2.0816675E1,1.2796641E1,2.2673584E1,2.286971E1,3.6384141E0,1.8066652E0,1.528979E1,4.2775373E0,1.2595512E1,8.7183695E0,2.8227592E1,2.0081238E1,5.6594806E0,7.137161E0,7.891103E0,1.4978608E1,7.273592E0,8.016198E0,8.212733E0,4.382779E0,1.8450457E1,9.777136E0],"tree_param":{"num_deleted":"0","num_feature":"3","num_nodes":"43","size_leaf_vector":"1"}},{"base_weights":[-6.0588436E-4,-4.688964E-1,5.454125E-1,-8.225018E-1,3.9576195E-2,2.890074E-1,1.0259304E-1,-1.04536E-1,-4.8810723E-1,-6.2795424E-1,7.144082E-1,6.176724E-1,-5.7771975E-1,-6.373787E-1,8.141813E-1,-9.978203E-2,-1.5080681E-1,3.347677E-1,9.644579E-2,2.4087407E-1,1.0432316E-1,-9.897306E-2,1.1188412E-1,-9.946724E-2,-2.891294E-1,1.0812779E-1,5.1832264E-3,-9.31257E-2,3.456495E-1,-1.7764302E-1,9.263216E-2,-3.088467E-1,9.9433675E-2,-8.785548E-2,9.1116466E-2,6.641522E-3,-9.9897176E-2,-1.4901071E-2,9.043744E-2,-9.022879E-2,8.608791E-2,-1.0272235E-1,1.006129E-1],"categories":[],"categories_nodes":[],"categories_segments":[],"categories_sizes":[],"default_left":[0,0,0,0,0,0,0,0,0,0,0,0,0,0,0,0,0,0,0,0,0,0,0,0,0,0,0,0,0,0,0,0,0,0,0,0,0,0,0,0,0,0,0],"id":25,"left_children":[1,3,5,7,9,11,-1,-1,13,15,17,19,21,23,25,-1,27,29,-1,31,-1,-1,33,-1,35,-1,-1,-1,37,39,-1,41,-1,-1,-1,-1,-1,-1,-1,-1,-1,-1,-1],"loss_changes":[9.54082E1,3.6147335E1,2.0928402E1,8.32209E0,3.7992397E1,3.275216E1,0E0,0E0,1.0097611E1,7.337694E0,3.6558723E0,1.3047905E1,9.141321E0,5.2827873E0,1.0651395E0,0E0,7.957256E0,5.673795E0,0E0,1.9065807E1,0E0,0E0,1.0922264E1,0E0,6.143877E0,0E0,0E0,0E0,3.6651807E0,8.737471E0,0E0,2.649005E1,0E0,0E0,0E0,0E0,0E0,0E0,0E0,0E0,0E0,0E0,0E0],"parents":[2147483647,0,0,1,1,2,2,3,3,4,4,5,5,8,8,9,9,10,10,11,11,12,12,13,13,14,14,16,16,17,17,19,19,22,22,24,24,28,28,29,29,31,31],"right_children":[2,4,6,8,10,12,-1,-1,14,16,18,20,22,24,26,-1,28,30,-1,32,-1,-1,34,-1,36,-1,-1,-1,38,40,-1,42,-1,-1,-1,-1,-1,-1,-1,-1,-1,-1,-1],"split_conditions":[1.08411044E-1,3E0,3E0,1E0,-8.162918E-1,2E0,1.0259304E-1,-1.04536E-1,-3.2508792E-3,1E0,-4.1973132E-1,1E0,1E0,-5.778263E-1,1E0,-9.978203E-2,-1.3464652E0,4E0,9.644579E-2,7.935445E-1,1.0432316E-1,-9.897306E-2,7.935445E-1,-9.946724E-2,2E0,1.0812779E-1,5.1832264E-3,-9.31257E-2,4E0,1E0,9.263216E-2,1E0,9.9433675E-2,-8.785548E-2,9.1116466E-2,6.641522E-3,-9.9897176E-2,-1.4901071E-2,9.043744E-2,-9.022879E-2,8.608791E-2,-1.0272235E-1,1.006129E-1],"split_indices":[0,2,2,1,0,2,0,0,0,1,0,2,1,0,2,0,0,2,0,0,0,0,0,0,2,0,0,0,2,1,0,1,0,0,0,0,0,0,0,0,0,0,0],"split_type":[0,0,0,0,0,0,0,0,0,0,0,0,0,0,0,0,0,0,0,0,0,0,0,0,0,0,0,0,0,0,0,0,0,0,0,0,0,0,0,0,0,0,0],"sum_hessian":[3.7113232E2,1.9986238E2,1.7126994E2,1.17518974E2,8.234341E1,1.1272249E2,5.854745E1,6.924459E1,4.8274384E1,4.1430576E1,4.0912834E1,8.1938545E1,3.078394E1,4.3768143E1,4.50624E0,2.2724339E1,1.8706236E1,1.7175203E1,2.373763E1,4.4289658E1,3.764889E1,1.899811E1,1.178583E1,2.0687334E1,2.3080809E1,3.0272598E0,1.4789802E0,6.932401E0,1.1773835E1,9.578177E0,7.5970254E0,2.5948166E1,1.8341492E1,5.2192035E0,6.566626E0,1.598214E1,7.0986695E0,6.633898E0,5.1399374E0,5.718905E0,3.859273E0,1.692228E1,9.025885E0],"tree_param":{"num_deleted":"0","num_feature":"3","num_nodes":"43","size_leaf_vector":"1"}},{"base_weights":[-4.02154E-4,-4.584456E-1,5.411048E-1,-8.0441904E-1,3.926911E-2,2.8634712E-1,1.02006756E-1,-1.0385442E-1,-4.667087E-1,-6.131639E-1,7.022082E-1,6.1250526E-1,-5.7187784E-1,-9.864504E-2,-7.991157E-2,-9.899959E-2,-1.4399436E-1,3.7159556E-1,9.891882E-2,2.3940139E-1,1.03405856E-1,-9.8129034E-2,1.0933944E-1,2.8553504E-1,-9.857061E-2,-9.162964E-2,3.2875976E-1,-3.3801172E-2,9.219361E-2,-3.031217E-1,9.851485E-2,-8.636334E-2,8.971538E-2,-3.4172602E-2,9.948272E-2,-1.3644876E-2,8.869373E-2,-5.281229E-2,8.5154615E-2,-1.0139849E-1,9.8775454E-2],"categories":[],"categories_nodes":[],"categories_segments":[],"categories_sizes":[],"default_left":[0,0,0,0,0,0,0,0,0,0,0,0,0,0,0,0,0,0,0,0,0,0,0,0,0,0,0,0,0,0,0,0,0,0,0,0,0,0,0,0,0],"id":26,"left_children":[1,3,5,7,9,11,-1,-1,13,15,17,19,21,-1,23,-1,25,27,-1,29,-1,-1,31,33,-1,-1,35,37,-1,39,-1,-1,-1,-1,-1,-1,-1,-1,-1,-1,-1],"loss_changes":[8.520915E1,3.2079296E1,1.8917027E1,8.1998825E0,3.3852848E1,2.9505405E1,0E0,0E0,9.3270235E0,6.8372297E0,3.3131618E0,1.1699095E1,8.251127E0,0E0,9.521022E0,0E0,7.148914E0,4.4103518E0,0E0,1.7127302E1,0E0,0E0,9.866637E0,9.533512E0,0E0,0E0,3.333041E0,5.8183923E0,0E0,2.3798372E1,0E0,0E0,0E0,0E0,0E0,0E0,0E0,0E0,0E0,0E0,0E0],"parents":[2147483647,0,0,1,1,2,2,3,3,4,4,5,5,8,8,9,9,10,10,11,11,12,12,14,14,16,16,17,17,19,19,22,22,23,23,26,26,27,27,29,29],"right_children":[2,4,6,8,10,12,-1,-1,14,16,18,20,22,-1,24,-1,26,28,-1,30,-1,-1,32,34,-1,-1,36,38,-1,40,-1,-1,-1,-1,-1,-1,-1,-1,-1,-1,-1],"split_conditions":[1.08411044E-1,3E0,3E0,1E0,-8.162918E-1,2E0,1.02006756E-1,-1.0385442E-1,-5.778263E-1,1E0,-4.038695E-1,1E0,1E0,-9.864504E-2,2E0,-9.899959E-2,-1.3464652E0,4E0,9.891882E-2,7.935445E-1,1.03405856E-1,-9.8129034E-2,7.935445E-1,1E0,-9.857061E-2,-9.162964E-2,4E0,1E0,9.219361E-2,1E0,9.851485E-2,-8.636334E-2,8.971538E-2,-3.4172602E-2,9.948272E-2,-1.3644876E-2,8.869373E-2,-5.281229E-2,8.5154615E-2,-1.0139849E-1,9.8775454E-2],"split_indices":[0,2,2,1,0,2,0,0,0,1,0,2,1,0,2,0,0,2,0,0,0,0,0,2,0,0,2,1,0,1,0,0,0,0,0,0,0,0,0,0,0],"split_type":[0,0,0,0,0,0,0,0,0,0,0,0,0,0,0,0,0,0,0,0,0,0,0,0,0,0,0,0,0,0,0,0,0,0,0,0,0,0,0,0,0],"sum_hessian":[3.4153845E2,1.8511172E2,1.5642671E2,1.0883894E2,7.627278E1,1.0315629E2,5.3270424E1,6.305171E1,4.578723E1,3.8478836E1,3.779395E1,7.495634E1,2.819995E1,1.8874775E1,2.6912457E1,2.0723686E1,1.7755148E1,1.8628267E1,1.916568E1,4.059492E1,3.436142E1,1.7338808E1,1.0861141E1,1.9663788E1,7.2486696E0,6.3854766E0,1.1369671E1,1.1267144E1,7.3611226E0,2.3842957E1,1.6751963E1,4.81645E0,6.044691E0,1.0710339E1,8.953449E0,6.6133633E0,4.7563076E0,7.4891586E0,3.7779856E0,1.5514105E1,8.328852E0],"tree_param":{"num_deleted":"0","num_feature":"3","num_nodes":"41","size_leaf_vector":"1"}},{"base_weights":[-8.937581E-5,-4.495308E-1,5.369851E-1,-7.923907E-1,3.97928E-2,2.8379753E-1,1.01447836E-1,-1.0320858E-1,-4.541887E-1,-7.6613075E-1,5.603006E-1,6.0767746E-1,-5.660352E-1,-6.249463E-1,7.115794E-1,-9.67712E-2,-4.881941E-1,2.0218733E-1,9.385597E-2,2.3809664E-1,1.0253426E-1,-9.728713E-2,1.0676829E-1,-9.782792E-2,-2.9570788E-1,9.713551E-2,5.945223E-4,-9.213519E-2,-3.010992E-2,-3.9479917E-1,9.892194E-2,-2.9753122E-1,9.7604476E-2,-8.486127E-2,8.8305645E-2,-9.747761E-2,1.108491E-2,-8.311524E-2,8.249261E-2,-9.201082E-2,2.7706776E-2,-1.0012758E-1,9.700975E-2],"categories":[],"categories_nodes":[],"categories_segments":[],"categories_sizes":[],"default_left":[0,0,0,0,0,0,0,0,0,0,0,0,0,0,0,0,0,0,0,0,0,0,0,0,0,0,0,0,0,0,0,0,0,0,0,0,0,0,0,0,0,0,0],"id":27,"left_children":[1,3,5,7,9,11,-1,-1,13,15,17,19,21,23,25,-1,27,29,-1,31,-1,-1,33,-1,35,-1,-1,-1,37,39,-1,41,-1,-1,-1,-1,-1,-1,-1,-1,-1,-1,-1],"loss_changes":[7.621874E1,2.8871655E1,1.7103432E1,7.729126E0,3.0538712E1,2.6601116E1,0E0,0E0,9.14985E0,1.1292839E0,5.795932E0,1.0492332E1,7.4510193E0,4.209897E0,1.10409E0,0E0,2.7573502E0,1.1654225E1,0E0,1.5391013E1,0E0,0E0,8.919235E0,0E0,6.030997E0,0E0,0E0,0E0,6.066084E0,5.318599E0,0E0,2.140258E1,0E0,0E0,0E0,0E0,0E0,0E0,0E0,0E0,0E0,0E0,0E0],"parents":[2147483647,0,0,1,1,2,2,3,3,4,4,5,5,8,8,9,9,10,10,11,11,12,12,13,13,14,14,16,16,17,17,19,19,22,22,24,24,28,28,29,29,31,31],"right_children":[2,4,6,8,10,12,-1,-1,14,16,18,20,22,24,26,-1,28,30,-1,32,-1,-1,34,-1,36,-1,-1,-1,38,40,-1,42,-1,-1,-1,-1,-1,-1,-1,-1,-1,-1,-1],"split_conditions":[1.08411044E-1,3E0,3E0,1E0,-1.0052656E0,2E0,1.01447836E-1,-1.0320858E-1,-1.8059662E-2,1E0,-4.1973132E-1,1E0,1E0,-5.778263E-1,1E0,-9.67712E-2,4E0,1E0,9.385597E-2,7.935445E-1,1.0253426E-1,-9.728713E-2,7.935445E-1,-9.782792E-2,1E0,9.713551E-2,5.945223E-4,-9.213519E-2,-1.3464652E0,4E0,9.892194E-2,1E0,9.7604476E-2,-8.486127E-2,8.8305645E-2,-9.747761E-2,1.108491E-2,-8.311524E-2,8.249261E-2,-9.201082E-2,2.7706776E-2,-1.0012758E-1,9.700975E-2],"split_indices":[0,2,2,1,0,2,0,0,0,1,0,2,1,0,2,0,2,1,0,0,0,0,0,0,2,0,0,0,0,2,0,1,0,0,0,0,0,0,0,0,0,0,0],"split_type":[0,0,0,0,0,0,0,0,0,0,0,0,0,0,0,0,0,0,0,0,0,0,0,0,0,0,0,0,0,0,0,0,0,0,0,0,0,0,0,0,0,0,0],"sum_hessian":[3.137578E2,1.7090334E2,1.4285448E2,1.00126915E2,7.077641E1,9.439599E1,4.8458492E1,5.7396454E1,4.273046E1,2.758835E1,4.3188065E1,6.855422E1,2.5841768E1,3.7675766E1,5.054694E0,1.4552194E1,1.3036156E1,2.2973059E1,2.0215006E1,3.720371E1,3.1350512E1,1.5825991E1,1.0015779E1,1.722204E1,2.0453728E1,3.419319E0,1.6353751E0,6.1805763E0,6.8555794E0,1.3347196E1,9.625863E0,2.1902754E1,1.5300953E1,4.448197E0,5.5675817E0,7.1363363E0,1.3317391E1,3.553969E0,3.3016105E0,7.283222E0,6.063974E0,1.4218978E1,7.683776E0],"tree_param":{"num_deleted":"0","num_feature":"3","num_nodes":"43","size_leaf_vector":"1"}},{"base_weights":[-3.4476488E-4,-4.4003782E-1,5.3301185E-1,-7.749193E-1,3.7588954E-2,2.813333E-1,1.0091013E-1,-1.025926E-1,-4.3463528E-1,-5.9476054E-1,6.8068314E-1,6.031335E-1,-5.6016034E-1,-5.889608E-1,7.687175E-1,-9.7584486E-2,-1.3530391E-1,3.574432E-1,9.729332E-2,2.3693879E-1,1.0169921E-1,-9.644085E-2,1.0416487E-1,-9.7009264E-2,-2.6783887E-1,1.01381E-1,4.593978E-3,-4.8042512E-1,8.827757E-2,-3.8941927E-2,9.004442E-2,-2.920298E-1,9.669524E-2,-8.334726E-2,8.6883284E-2,6.7250193E-3,-9.6105315E-2,-9.055067E-2,-2.9088499E-3,-4.912403E-2,8.119959E-2,-9.889639E-2,9.529952E-2],"categories":[],"categories_nodes":[],"categories_segments":[],"categories_sizes":[],"default_left":[0,0,0,0,0,0,0,0,0,0,0,0,0,0,0,0,0,0,0,0,0,0,0,0,0,0,0,0,0,0,0,0,0,0,0,0,0,0,0,0,0,0,0],"id":28,"left_children":[1,3,5,7,9,11,-1,-1,13,15,17,19,21,23,25,-1,27,29,-1,31,-1,-1,33,-1,35,-1,-1,37,-1,39,-1,41,-1,-1,-1,-1,-1,-1,-1,-1,-1,-1,-1],"loss_changes":[6.822334E1,2.5534227E1,1.54674E1,7.5644035E0,2.7519207E1,2.4000347E1,0E0,0E0,8.168244E0,5.847764E0,2.8190746E0,9.411648E0,6.731254E0,4.316333E0,8.668549E-1,0E0,6.2724996E0,3.8013883E0,0E0,1.3834587E1,0E0,0E0,8.068364E0,0E0,5.099249E0,0E0,0E0,2.4828436E0,0E0,4.6607594E0,0E0,1.926646E1,0E0,0E0,0E0,0E0,0E0,0E0,0E0,0E0,0E0,0E0,0E0],"parents":[2147483647,0,0,1,1,2,2,3,3,4,4,5,5,8,8,9,9,10,10,11,11,12,12,13,13,14,14,16,16,17,17,19,19,22,22,24,24,27,27,29,29,31,31],"right_children":[2,4,6,8,10,12,-1,-1,14,16,18,20,22,24,26,-1,28,30,-1,32,-1,-1,34,-1,36,-1,-1,38,-1,40,-1,42,-1,-1,-1,-1,-1,-1,-1,-1,-1,-1,-1],"split_conditions":[1.08411044E-1,3E0,3E0,1E0,-8.162918E-1,2E0,1.0091013E-1,-1.025926E-1,-3.2508792E-3,1E0,-4.038695E-1,1E0,1E0,-5.778263E-1,1E0,-9.7584486E-2,-1.0052656E0,4E0,9.729332E-2,7.935445E-1,1.0169921E-1,-9.644085E-2,7.935445E-1,-9.7009264E-2,2E0,1.01381E-1,4.593978E-3,4E0,8.827757E-2,1E0,9.004442E-2,1E0,9.669524E-2,-8.334726E-2,8.6883284E-2,6.7250193E-3,-9.6105315E-2,-9.055067E-2,-2.9088499E-3,-4.912403E-2,8.119959E-2,-9.889639E-2,9.529952E-2],"split_indices":[0,2,2,1,0,2,0,0,0,1,0,2,1,0,2,0,0,2,0,0,0,0,0,0,2,0,0,2,0,1,0,1,0,0,0,0,0,0,0,0,0,0,0],"split_type":[0,0,0,0,0,0,0,0,0,0,0,0,0,0,0,0,0,0,0,0,0,0,0,0,0,0,0,0,0,0,0,0,0,0,0,0,0,0,0,0,0,0,0],"sum_hessian":[2.889146E2,1.5845834E2,1.3045627E2,9.278263E1,6.5675705E1,8.638229E1,4.4073963E1,5.223624E1,4.0546394E1,3.315238E1,3.2523323E1,6.2691395E1,2.36909E1,3.6390068E1,4.156324E0,1.750741E1,1.5644973E1,1.6498457E1,1.6024866E1,3.4095325E1,2.8596071E1,1.4447655E1,9.243246E0,1.5716084E1,2.0673986E1,2.8031304E0,1.3531935E0,1.2078546E1,3.5664275E0,1.0073319E1,6.4251375E0,2.0117867E1,1.3977459E1,4.111606E0,5.13164E0,1.4545773E1,6.1282134E0,5.7019806E0,6.3765645E0,6.853298E0,3.2200215E0,1.3029783E1,7.0880823E0],"tree_param":{"num_deleted":"0","num_feature":"3","num_nodes":"43","size_leaf_vector":"1"}},{"base_weights":[1.42113E-4,-4.2865375E-1,5.2914923E-1,-7.5673366E-1,3.8365234E-2,2.7893344E-1,1.00388005E-1,-1.0200105E-1,-4.1476506E-1,-5.783005E-1,6.689297E-1,5.9882474E-1,-5.542207E-1,-9.618302E-2,-6.562609E-2,-9.680336E-2,-1.278629E-1,3.492541E-1,9.645838E-2,2.3591022E-1,1.0089234E-1,-9.5584266E-2,1.0153298E-1,2.7938038E-1,-9.518599E-2,-8.817582E-2,3.2480207E-1,-3.3118807E-2,8.870603E-2,-2.8657758E-1,9.5780544E-2,-8.182024E-2,8.5445605E-2,-3.355024E-2,9.746027E-2,-1.1616856E-2,8.496827E-2,-4.61748E-2,7.942038E-2,-9.7693294E-2,9.363111E-2],"categories":[],"categories_nodes":[],"categories_segments":[],"categories_sizes":[],"default_left":[0,0,0,0,0,0,0,0,0,0,0,0,0,0,0,0,0,0,0,0,0,0,0,0,0,0,0,0,0,0,0,0,0,0,0,0,0,0,0,0,0],"id":29,"left_children":[1,3,5,7,9,11,-1,-1,13,15,17,19,21,-1,23,-1,25,27,-1,29,-1,-1,31,33,-1,-1,35,37,-1,39,-1,-1,-1,-1,-1,-1,-1,-1,-1,-1,-1],"loss_changes":[6.087335E1,2.2738932E1,1.3990879E1,7.4194183E0,2.4538399E1,2.1669004E1,0E0,0E0,7.496018E0,5.4829044E0,2.6093721E0,8.443054E0,6.083373E0,0E0,7.980643E0,0E0,5.735413E0,3.4318514E0,0E0,1.243843E1,0E0,0E0,7.3037705E0,8.421107E0,0E0,0E0,2.5770607E0,4.137765E0,0E0,1.7358944E1,0E0,0E0,0E0,0E0,0E0,0E0,0E0,0E0,0E0,0E0,0E0],"parents":[2147483647,0,0,1,1,2,2,3,3,4,4,5,5,8,8,9,9,10,10,11,11,12,12,14,14,16,16,17,17,19,19,22,22,23,23,26,26,27,27,29,29],"right_children":[2,4,6,8,10,12,-1,-1,14,16,18,20,22,-1,24,-1,26,28,-1,30,-1,-1,32,34,-1,-1,36,38,-1,40,-1,-1,-1,-1,-1,-1,-1,-1,-1,-1,-1],"split_conditions":[1.08411044E-1,3E0,3E0,1E0,-8.162918E-1,2E0,1.00388005E-1,-1.0200105E-1,-5.778263E-1,1E0,-4.038695E-1,1E0,1E0,-9.618302E-2,2E0,-9.680336E-2,-1.3464652E0,4E0,9.645838E-2,7.935445E-1,1.0089234E-1,-9.5584266E-2,7.935445E-1,1E0,-9.518599E-2,-8.817582E-2,4E0,1E0,8.870603E-2,1E0,9.5780544E-2,-8.182024E-2,8.5445605E-2,-3.355024E-2,9.746027E-2,-1.1616856E-2,8.496827E-2,-4.61748E-2,7.942038E-2,-9.7693294E-2,9.363111E-2],"split_indices":[0,2,2,1,0,2,0,0,0,1,0,2,1,0,2,0,0,2,0,0,0,0,0,2,0,0,2,1,0,1,0,0,0,0,0,0,0,0,0,0,0],"split_type":[0,0,0,0,0,0,0,0,0,0,0,0,0,0,0,0,0,0,0,0,0,0,0,0,0,0,0,0,0,0,0,0,0,0,0,0,0,0,0,0,0],"sum_hessian":[2.6635837E2,1.47218E2,1.1914038E2,8.6107376E1,6.111062E1,7.905861E1,4.008177E1,4.7531097E1,3.8576283E1,3.0937712E1,3.0172907E1,5.7328476E1,2.1730135E1,1.4344715E1,2.4231565E1,1.5970459E1,1.4967254E1,1.5545573E1,1.4627334E1,3.1249582E1,2.6078894E1,1.3192594E1,8.537541E0,1.7934505E1,6.2970605E0,5.2596283E0,9.707625E0,9.634203E0,5.91137E0,1.8478428E1,1.2771154E1,3.8040235E0,4.7335176E0,9.791725E0,8.142781E0,5.6986585E0,4.008967E0,6.6373315E0,2.9968715E0,1.1939416E1,6.5390124E0],"tree_param":{"num_deleted":"0","num_feature":"3","num_nodes":"41","size_leaf_vector":"1"}},{"base_weights":[5.1969476E-4,-4.7353363E-1,4.710069E-1,-8.1811464E-1,-2.3721479E-2,2.0738156E-1,1.0011708E-1,-9.988528E-2,-5.7945126E-1,-7.3265666E-1,4.8178667E-1,4.914582E-1,-5.84792E-1,-9.53436E-2,-2.761837E-1,-9.405329E-2,-4.6221635E-1,1.5873483E-1,9.773519E-2,1.9759451E-1,9.833153E-2,-9.524527E-2,1.1617463E-2,-9.510283E-2,1.3691553E-1,-8.8381425E-2,-2.4478596E-2,-3.868759E-1,8.154449E-2,-1.8295924E-1,1.0075631E-1,-8.3727926E-2,8.399062E-2,9.4939925E-2,-9.198693E-2,-7.9389706E-2,7.879876E-2,-8.88965E-2,2.5305703E-2,-9.6872695E-2,4.349093E-2],"categories":[],"categories_nodes":[],"categories_segments":[],"categories_sizes":[],"default_left":[0,0,0,0,0,0,0,0,0,0,0,0,0,0,0,0,0,0,0,0,0,0,0,0,0,0,0,0,0,0,0,0,0,0,0,0,0,0,0,0,0],"id":30,"left_children":[1,3,5,7,9,11,-1,-1,13,15,17,19,21,-1,23,-1,25,27,-1,29,-1,-1,31,-1,33,-1,35,37,-1,39,-1,-1,-1,-1,-1,-1,-1,-1,-1,-1,-1],"loss_changes":[5.5089977E1,1.9050528E1,1.7118425E1,2.4250183E0,1.9847752E1,1.9203384E1,0E0,0E0,3.4103718E0,8.605223E-1,5.025211E0,8.826863E0,4.976242E0,0E0,5.5090485E0,0E0,2.1891556E0,7.7620587E0,0E0,1.2613033E1,0E0,0E0,7.4697037E0,0E0,1.19E1,0E0,4.9425097E0,4.090154E0,0E0,1.4150906E1,0E0,0E0,0E0,0E0,0E0,0E0,0E0,0E0,0E0,0E0,0E0],"parents":[2147483647,0,0,1,1,2,2,3,3,4,4,5,5,8,8,9,9,10,10,11,11,12,12,14,14,16,16,17,17,19,19,22,22,24,24,26,26,27,27,29,29],"right_children":[2,4,6,8,10,12,-1,-1,14,16,18,20,22,-1,24,-1,26,28,-1,30,-1,-1,32,-1,34,-1,36,38,-1,40,-1,-1,-1,-1,-1,-1,-1,-1,-1,-1,-1],"split_conditions":[-1.8059662E-2,3E0,3E0,1E0,-1.0052656E0,2E0,1.0011708E-1,-9.988528E-2,-5.778263E-1,1E0,1E0,7.935445E-1,1E0,-9.53436E-2,1E0,-9.405329E-2,4E0,-4.1973132E-1,9.773519E-2,1E0,9.833153E-2,-9.524527E-2,7.935445E-1,-9.510283E-2,2E0,-8.8381425E-2,-1.3464652E0,4E0,8.154449E-2,1E0,1.0075631E-1,-8.3727926E-2,8.399062E-2,9.4939925E-2,-9.198693E-2,-7.9389706E-2,7.879876E-2,-8.88965E-2,2.5305703E-2,-9.6872695E-2,4.349093E-2],"split_indices":[0,2,2,1,0,2,0,0,0,1,1,0,1,0,2,0,2,0,0,1,0,0,0,0,2,0,0,2,0,2,0,0,0,0,0,0,0,0,0,0,0],"split_type":[0,0,0,0,0,0,0,0,0,0,0,0,0,0,0,0,0,0,0,0,0,0,0,0,0,0,0,0,0,0,0,0,0,0,0,0,0,0,0,0,0],"sum_hessian":[2.4500034E2,1.2203444E2,1.2296589E2,6.863638E1,5.339806E1,8.305683E1,3.9909058E1,3.7245457E1,3.1390924E1,2.2039732E1,3.1358326E1,6.141336E1,2.1643473E1,1.3096568E1,1.8294357E1,1.106033E1,1.0979402E1,1.9782627E1,1.15757E1,3.9321915E1,2.2091444E1,1.3020141E1,8.623332E0,6.452039E0,1.1842318E1,5.073713E0,5.905689E0,1.1029738E1,8.752889E0,2.7279224E1,1.2042691E1,4.253327E0,4.370005E0,6.7524633E0,5.0898542E0,3.0449386E0,2.8607502E0,5.9624605E0,5.067278E0,1.1758115E1,1.552111E1],"tree_param":{"num_deleted":"0","num_feature":"3","num_nodes":"41","size_leaf_vector":"1"}},{"base_weights":[-5.13986E-4,-4.175367E-1,5.2471644E-1,-7.419271E-1,3.671675E-2,2.805645E-1,9.9368356E-2,-1.012357E-1,-3.9835292E-1,-7.246959E-1,5.188149E-1,5.9596395E-1,-5.416247E-1,-5.603042E-1,7.374308E-1,-9.3119286E-2,-4.548773E-1,2.3403591E-1,9.703283E-2,2.3185292E-1,9.964022E-2,-9.381385E-2,9.765758E-2,-9.448591E-2,-2.6275432E-1,9.520227E-2,3.4299826E-3,-8.679984E-2,-2.3602245E-2,-3.7082124E-1,8.2591814E-1,-2.7917552E-1,9.3876086E-2,-7.865962E-2,8.2517385E-2,-8.609339E-2,1.2540226E-2,-7.765364E-2,7.700202E-2,-8.753668E-2,2.3328142E-2,3.391066E-2,9.12457E-2,-9.532722E-2,9.0221226E-2],"categories":[],"categories_nodes":[],"categories_segments":[],"categories_sizes":[],"default_left":[0,0,0,0,0,0,0,0,0,0,0,0,0,0,0,0,0,0,0,0,0,0,0,0,0,0,0,0,0,0,0,0,0,0,0,0,0,0,0,0,0,0,0,0,0],"id":31,"left_children":[1,3,5,7,9,11,-1,-1,13,15,17,19,21,23,25,-1,27,29,-1,31,-1,-1,33,-1,35,-1,-1,-1,37,39,41,43,-1,-1,-1,-1,-1,-1,-1,-1,-1,-1,-1,-1,-1],"loss_changes":[4.9913944E1,1.8745195E1,1.1269262E1,6.486473E0,2.0151459E1,1.7883766E1,0E0,0E0,6.7239323E0,7.6337147E-1,4.0893545E0,6.974684E0,4.9837084E0,3.2525597E0,6.7851543E-1,0E0,1.9733303E0,8.147872E0,0E0,1.0083596E1,0E0,0E0,5.98451E0,0E0,4.434551E0,0E0,0E0,0E0,4.4837623E0,3.7164574E0,1.7001629E-1,1.4040645E1,0E0,0E0,0E0,0E0,0E0,0E0,0E0,0E0,0E0,0E0,0E0,0E0,0E0],"parents":[2147483647,0,0,1,1,2,2,3,3,4,4,5,5,8,8,9,9,10,10,11,11,12,12,13,13,14,14,16,16,17,17,19,19,22,22,24,24,28,28,29,29,30,30,31,31],"right_children":[2,4,6,8,10,12,-1,-1,14,16,18,20,22,24,26,-1,28,30,-1,32,-1,-1,34,-1,36,-1,-1,-1,38,40,42,44,-1,-1,-1,-1,-1,-1,-1,-1,-1,-1,-1,-1,-1],"split_conditions":[1.08411044E-1,3E0,3E0,1E0,-1.0052656E0,2E0,9.9368356E-2,-1.012357E-1,-3.2508792E-3,1E0,1E0,1E0,1E0,-5.778263E-1,1E0,-9.3119286E-2,4E0,-4.1973132E-1,9.703283E-2,7.935445E-1,9.964022E-2,-9.381385E-2,7.935445E-1,-9.448591E-2,1E0,9.520227E-2,3.4299826E-3,-8.679984E-2,-1.3464652E0,4E0,-4.038695E-1,1E0,9.3876086E-2,-7.865962E-2,8.2517385E-2,-8.609339E-2,1.2540226E-2,-7.765364E-2,7.700202E-2,-8.753668E-2,2.3328142E-2,3.391066E-2,9.12457E-2,-9.532722E-2,9.0221226E-2],"split_indices":[0,2,2,1,0,2,0,0,0,1,1,2,1,0,2,0,2,0,0,0,0,0,0,0,2,0,0,0,0,2,0,1,0,0,0,0,0,0,0,0,0,0,0,0,0],"split_type":[0,0,0,0,0,0,0,0,0,0,0,0,0,0,0,0,0,0,0,0,0,0,0,0,0,0,0,0,0,0,0,0,0,0,0,0,0,0,0,0,0,0,0,0,0],"sum_hessian":[2.2588293E2,1.2602588E2,9.985705E1,7.3152855E1,5.2873028E1,6.671986E1,3.3137196E1,3.9844437E1,3.330842E1,2.0303314E1,3.2569714E1,4.8420467E1,1.8299393E1,2.9595129E1,3.7132866E0,1.0112706E1,1.0190608E1,2.0903666E1,1.1666046E1,2.6187584E1,2.2232882E1,1.1005662E1,7.29373E0,1.1961093E1,1.7634037E1,2.5738003E0,1.1394864E0,4.687648E0,5.50296E0,1.0523234E1,1.0380431E1,1.5550848E1,1.0636736E1,3.255568E0,4.0381618E0,6.460262E0,1.1173775E1,2.8349164E0,2.6680436E0,5.489433E0,5.0338016E0,2.309157E0,8.071274E0,1.0024174E1,5.5266743E0],"tree_param":{"num_deleted":"0","num_feature":"3","num_nodes":"45","size_leaf_vector":"1"}},{"base_weights":[-5.3391146E-4,-4.0773806E-1,5.2095264E-1,-7.2406334E-1,3.5096813E-2,2.7815416E-1,9.886244E-2,-1.0066699E-1,-3.8006136E-1,-5.594458E-1,6.4049506E-1,5.920197E-1,-5.353614E-1,-5.5308837E-1,6.189262E-1,-9.473293E-2,-1.2035978E-1,3.3649686E-1,9.3932055E-2,2.3115192E-1,9.88639E-2,-9.289562E-2,9.490161E-2,-9.36053E-2,-2.600875E-1,8.333977E-2,1.45365E-5,-4.476039E-1,8.117415E-2,-3.7395246E-2,8.572832E-2,-2.7362257E-1,9.2910305E-2,-7.709507E-2,8.102588E-2,-9.168721E-2,1.2199306E-2,-8.521735E-2,-2.2739794E-3,-4.0812626E-2,7.322445E-2,-9.41518E-2,8.8618256E-2],"categories":[],"categories_nodes":[],"categories_segments":[],"categories_sizes":[],"default_left":[0,0,0,0,0,0,0,0,0,0,0,0,0,0,0,0,0,0,0,0,0,0,0,0,0,0,0,0,0,0,0,0,0,0,0,0,0,0,0,0,0,0,0],"id":32,"left_children":[1,3,5,7,9,11,-1,-1,13,15,17,19,21,23,25,-1,27,29,-1,31,-1,-1,33,-1,35,-1,-1,37,-1,39,-1,41,-1,-1,-1,-1,-1,-1,-1,-1,-1,-1,-1],"loss_changes":[4.467663E1,1.6574347E1,1.0200048E1,6.321457E0,1.8419794E1,1.6177288E1,0E0,0E0,5.9959483E0,4.2887154E0,1.9848833E0,6.2547913E0,4.508328E0,2.9440966E0,7.0333314E-1,0E0,4.411196E0,2.780326E0,0E0,9.069999E0,0E0,0E0,5.4293685E0,0E0,4.4980536E0,0E0,0E0,1.7797236E0,0E0,2.9164386E0,0E0,1.2681137E1,0E0,0E0,0E0,0E0,0E0,0E0,0E0,0E0,0E0,0E0,0E0],"parents":[2147483647,0,0,1,1,2,2,3,3,4,4,5,5,8,8,9,9,10,10,11,11,12,12,13,13,14,14,16,16,17,17,19,19,22,22,24,24,27,27,29,29,31,31],"right_children":[2,4,6,8,10,12,-1,-1,14,16,18,20,22,24,26,-1,28,30,-1,32,-1,-1,34,-1,36,-1,-1,38,-1,40,-1,42,-1,-1,-1,-1,-1,-1,-1,-1,-1,-1,-1],"split_conditions":[1.08411044E-1,3E0,3E0,1E0,-8.162918E-1,2E0,9.886244E-2,-1.0066699E-1,-1.8059662E-2,1E0,-4.038695E-1,1E0,1E0,-5.778263E-1,1E0,-9.473293E-2,-1.0052656E0,4E0,9.3932055E-2,7.935445E-1,9.88639E-2,-9.289562E-2,7.935445E-1,-9.36053E-2,1E0,8.333977E-2,1.45365E-5,4E0,8.117415E-2,1E0,8.572832E-2,1E0,9.2910305E-2,-7.709507E-2,8.102588E-2,-9.168721E-2,1.2199306E-2,-8.521735E-2,-2.2739794E-3,-4.0812626E-2,7.322445E-2,-9.41518E-2,8.8618256E-2],"split_indices":[0,2,2,1,0,2,0,0,0,1,0,2,1,0,2,0,0,2,0,0,0,0,0,0,2,0,0,2,0,1,0,1,0,0,0,0,0,0,0,0,0,0,0],"split_type":[0,0,0,0,0,0,0,0,0,0,0,0,0,0,0,0,0,0,0,0,0,0,0,0,0,0,0,0,0,0,0,0,0,0,0,0,0,0,0,0,0,0,0],"sum_hessian":[2.0838971E2,1.171393E2,9.125041E1,6.7959496E1,4.9179806E1,6.111595E1,3.0134457E1,3.6251553E1,3.170794E1,2.485066E1,2.4329147E1,4.42976E1,1.6818354E1,2.7407284E1,4.300655E0,1.258007E1,1.227059E1,1.3114101E1,1.1215046E1,2.4022926E1,2.0274673E1,1.0061254E1,6.7571E0,1.0928524E1,1.647876E1,2.9361405E0,1.3645142E0,9.466767E0,2.8038228E0,8.173926E0,4.940175E0,1.4293498E1,9.729427E0,3.02183E0,3.7352698E0,5.545881E0,1.0932879E1,4.3340178E0,5.1327496E0,5.833622E0,2.3403044E0,9.189667E0,5.1038313E0],"tree_param":{"num_deleted":"0","num_feature":"3","num_nodes":"43","size_leaf_vector":"1"}},{"base_weights":[2.635998E-5,-3.9631003E-1,5.17184E-1,-7.06371E-1,3.626767E-2,2.7574056E-1,9.835268E-2,-1.00105144E-1,-3.630606E-1,-5.432504E-1,6.2816715E-1,5.881626E-1,-5.289552E-1,-9.269761E-2,-5.413356E-2,-9.388699E-2,-1.1362169E-1,3.284083E-1,9.3025886E-2,2.305223E-1,9.809063E-2,-9.194835E-2,9.212742E-2,3.0692542E-1,-9.2099085E-2,-8.326427E-2,3.160018E-1,-3.0828226E-2,8.4324084E-2,-2.6801285E-1,9.1918394E-2,-7.552118E-2,7.951671E-2,-2.7612662E-2,9.3782626E-2,-9.98408E-3,7.961612E-2,-3.8178887E-2,7.1516104E-2,-9.297046E-2,8.7021895E-2],"categories":[],"categories_nodes":[],"categories_segments":[],"categories_sizes":[],"default_left":[0,0,0,0,0,0,0,0,0,0,0,0,0,0,0,0,0,0,0,0,0,0,0,0,0,0,0,0,0,0,0,0,0,0,0,0,0,0,0,0,0],"id":33,"left_children":[1,3,5,7,9,11,-1,-1,13,15,17,19,21,-1,23,-1,25,27,-1,29,-1,-1,31,33,-1,-1,35,37,-1,39,-1,-1,-1,-1,-1,-1,-1,-1,-1,-1,-1],"loss_changes":[3.9878708E1,1.4799095E1,9.233381E0,6.132271E0,1.6442028E1,1.4643089E1,0E0,0E0,5.3896523E0,4.0157137E0,1.8392906E0,5.6083307E0,4.079439E0,0E0,6.929291E0,0E0,4.2062626E0,2.51059E0,0E0,8.159147E0,0E0,0E0,4.929559E0,6.0495625E0,0E0,0E0,1.8196807E0,2.597288E0,0E0,1.1461443E1,0E0,0E0,0E0,0E0,0E0,0E0,0E0,0E0,0E0,0E0,0E0],"parents":[2147483647,0,0,1,1,2,2,3,3,4,4,5,5,8,8,9,9,10,10,11,11,12,12,14,14,16,16,17,17,19,19,22,22,23,23,26,26,27,27,29,29],"right_children":[2,4,6,8,10,12,-1,-1,14,16,18,20,22,-1,24,-1,26,28,-1,30,-1,-1,32,34,-1,-1,36,38,-1,40,-1,-1,-1,-1,-1,-1,-1,-1,-1,-1,-1],"split_conditions":[1.08411044E-1,3E0,3E0,1E0,-8.162918E-1,2E0,9.835268E-2,-1.00105144E-1,-5.778263E-1,1E0,-4.038695E-1,1E0,1E0,-9.269761E-2,2E0,-9.388699E-2,-1.3464652E0,4E0,9.3025886E-2,7.935445E-1,9.809063E-2,-9.194835E-2,7.935445E-1,1E0,-9.2099085E-2,-8.326427E-2,4E0,1E0,8.4324084E-2,1E0,9.1918394E-2,-7.552118E-2,7.951671E-2,-2.7612662E-2,9.3782626E-2,-9.98408E-3,7.961612E-2,-3.8178887E-2,7.1516104E-2,-9.297046E-2,8.7021895E-2],"split_indices":[0,2,2,1,0,2,0,0,0,1,0,2,1,0,2,0,0,2,0,0,0,0,0,2,0,0,2,1,0,1,0,0,0,0,0,0,0,0,0,0,0],"split_type":[0,0,0,0,0,0,0,0,0,0,0,0,0,0,0,0,0,0,0,0,0,0,0,0,0,0,0,0,0,0,0,0,0,0,0,0,0,0,0,0,0],"sum_hessian":[1.9256029E2,1.0914671E2,8.3413574E1,6.3207916E1,4.5938797E1,5.6007587E1,2.7405985E1,3.2981968E1,3.0225948E1,2.3253706E1,2.2685091E1,4.053789E1,1.5469695E1,9.989847E0,2.0236101E1,1.148893E1,1.1764777E1,1.24341135E1,1.02509775E1,2.2047733E1,1.849016E1,9.202706E0,6.2669883E0,1.4741838E1,5.4942627E0,4.0494733E0,7.7153034E0,7.877513E0,4.5566006E0,1.3143631E1,8.904102E0,2.808197E0,3.4587913E0,7.9536963E0,6.7881427E0,4.5590234E0,3.15628E0,5.689175E0,2.1883378E0,8.427595E0,4.716037E0],"tree_param":{"num_deleted":"0","num_feature":"3","num_nodes":"41","size_leaf_vector":"1"}},{"base_weights":[5.234627E-4,-4.340777E-1,4.6054482E-1,-7.665896E-1,-1.31733585E-2,2.096896E-1,9.8143585E-2,-9.793418E-2,-5.1858306E-1,-6.918114E-1,4.5111167E-1,4.8468533E-1,-5.566761E-1,-9.17591E-2,-2.4692285E-1,-9.120114E-2,-4.239413E-1,1.4800508E-1,9.379097E-2,2.1769556E-1,1.0009326E-1,-9.1621876E-2,1.3131211E-2,6.8272054E-2,-8.910984E-2,-8.398532E-2,7.562739E-2,-3.6454323E-1,7.5341485E-2,-1.6630758E-1,9.2673816E-2,-7.75946E-2,7.7991076E-2,-8.124331E-2,9.123577E-2,-6.7866825E-2,7.3420145E-2,-8.44156E-2,2.1460414E-2,-9.2330545E-2,4.0460628E-2],"categories":[],"categories_nodes":[],"categories_segments":[],"categories_sizes":[],"default_left":[0,0,0,0,0,0,0,0,0,0,0,0,0,0,0,0,0,0,0,0,0,0,0,0,0,0,0,0,0,0,0,0,0,0,0,0,0,0,0,0,0],"id":34,"left_children":[1,3,5,7,9,11,-1,-1,13,15,17,19,21,-1,23,-1,25,27,-1,29,-1,-1,31,33,-1,-1,35,37,-1,39,-1,-1,-1,-1,-1,-1,-1,-1,-1,-1,-1],"loss_changes":[3.589748E1,1.2911814E1,1.1191805E1,2.2127934E0,1.3471677E1,1.2945135E1,0E0,0E0,2.5845647E0,6.374006E-1,3.6096888E0,5.956543E0,3.3612537E0,0E0,3.4714284E0,0E0,2.079214E0,5.501259E0,0E0,8.541349E0,0E0,0E0,5.028387E0,9.816295E0,0E0,0E0,3.143413E0,2.9019587E0,0E0,9.3759575E0,0E0,0E0,0E0,0E0,0E0,0E0,0E0,0E0,0E0,0E0,0E0],"parents":[2147483647,0,0,1,1,2,2,3,3,4,4,5,5,8,8,9,9,10,10,11,11,12,12,14,14,16,16,17,17,19,19,22,22,23,23,26,26,27,27,29,29],"right_children":[2,4,6,8,10,12,-1,-1,14,16,18,20,22,-1,24,-1,26,28,-1,30,-1,-1,32,34,-1,-1,36,38,-1,40,-1,-1,-1,-1,-1,-1,-1,-1,-1,-1,-1],"split_conditions":[-3.2508792E-3,3E0,3E0,1E0,-1.0052656E0,2E0,9.8143585E-2,-9.793418E-2,-5.778263E-1,4E0,1E0,1E0,1E0,-9.17591E-2,2E0,-9.120114E-2,-1.3464652E0,-4.1973132E-1,9.379097E-2,7.935445E-1,1.0009326E-1,-9.1621876E-2,7.935445E-1,1E0,-8.910984E-2,-8.398532E-2,1E0,4E0,7.5341485E-2,1E0,9.2673816E-2,-7.75946E-2,7.7991076E-2,-8.124331E-2,9.123577E-2,-6.7866825E-2,7.3420145E-2,-8.44156E-2,2.1460414E-2,-9.2330545E-2,4.0460628E-2],"split_indices":[0,2,2,1,0,2,0,0,0,2,1,1,1,0,2,0,0,0,0,0,0,0,0,2,0,0,1,2,0,2,0,0,0,0,0,0,0,0,0,0,0],"split_type":[0,0,0,0,0,0,0,0,0,0,0,0,0,0,0,0,0,0,0,0,0,0,0,0,0,0,0,0,0,0,0,0,0,0,0,0,0,0,0,0,0],"sum_hessian":[1.7755408E2,9.132859E1,8.622549E1,5.0562904E1,4.0765682E1,5.914465E1,2.7080837E1,2.5628586E1,2.4934319E1,1.6361006E1,2.4404678E1,4.379662E1,1.534803E1,9.136758E0,1.5797562E1,7.6597247E0,8.701281E0,1.5843625E1,8.561053E0,